{"learner":{"attributes":{"scikit_learn":"{\"_estimator_type\": \"regressor\"}"},"feature_names":["driver_encoded","team_encoded","race_name_encoded","year","driver_competitiveness","team_competitiveness","points_last_3","session_air_temp","session_track_temp","session_humidity","session_rainfall","heat_index","weather_difficulty_index","circuit_type_encoded","driver_avg_points_in_rain","driver_avg_points_in_dry","driver_rain_dry_delta"],"feature_types":["int","int","int","int","float","float","float","float","float","float","int","float","float","int","float","float","float"],"gradient_booster":{"model":{"gbtree_model_param":{"num_parallel_tree":"1","num_trees":"200"},"iteration_indptr":[0,1,2,3,4,5,6,7,8,9,10,11,12,13,14,15,16,17,18,19,20,21,22,23,24,25,26,27,28,29,30,31,32,33,34,35,36,37,38,39,40,41,42,43,44,45,46,47,48,49,50,51,52,53,54,55,56,57,58,59,60,61,62,63,64,65,66,67,68,69,70,71,72,73,74,75,76,77,78,79,80,81,82,83,84,85,86,87,88,89,90,91,92,93,94,95,96,97,98,99,100,101,102,103,104,105,106,107,108,109,110,111,112,113,114,115,116,117,118,119,120,121,122,123,124,125,126,127,128,129,130,131,132,133,134,135,136,137,138,139,140,141,142,143,144,145,146,147,148,149,150,151,152,153,154,155,156,157,158,159,160,161,162,163,164,165,166,167,168,169,170,171,172,173,174,175,176,177,178,179,180,181,182,183,184,185,186,187,188,189,190,191,192,193,194,195,196,197,198,199,200],"tree_info":[0,0,0,0,0,0,0,0,0,0,0,0,0,0,0,0,0,0,0,0,0,0,0,0,0,0,0,0,0,0,0,0,0,0,0,0,0,0,0,0,0,0,0,0,0,0,0,0,0,0,0,0,0,0,0,0,0,0,0,0,0,0,0,0,0,0,0,0,0,0,0,0,0,0,0,0,0,0,0,0,0,0,0,0,0,0,0,0,0,0,0,0,0,0,0,0,0,0,0,0,0,0,0,0,0,0,0,0,0,0,0,0,0,0,0,0,0,0,0,0,0,0,0,0,0,0,0,0,0,0,0,0,0,0,0,0,0,0,0,0,0,0,0,0,0,0,0,0,0,0,0,0,0,0,0,0,0,0,0,0,0,0,0,0,0,0,0,0,0,0,0,0,0,0,0,0,0,0,0,0,0,0,0,0,0,0,0,0,0,0,0,0,0,0,0,0,0,0,0,0],"trees":[{"base_weights":[-3.3794772E-2,3.8902178E0,-4.694236E0,5.166929E0,2.5850353E0,-2.1208143E0,-6.8404484E0,1.6072294E-1,1.1550828E-1,1.340082E-1,6.830647E-2,-4.4393208E-2,-1.0754999E-1,-1.607876E-1,-2.3437057E-1],"categories":[],"categories_nodes":[],"categories_segments":[],"categories_sizes":[],"default_left":[0,0,0,0,0,0,0,0,0,0,0,0,0,0,0],"id":0,"left_children":[1,3,5,7,9,11,13,-1,-1,-1,-1,-1,-1,-1,-1],"loss_changes":[1.8440898E4,8.695586E2,2.4999004E3,9.011719E0,1.25848145E2,1.7919647E2,2.4988574E2,0E0,0E0,0E0,0E0,0E0,0E0,0E0,0E0],"parents":[2147483647,0,0,1,1,2,2,3,3,4,4,5,5,6,6],"right_children":[2,4,6,8,10,12,14,-1,-1,-1,-1,-1,-1,-1,-1],"split_conditions":[2.8900514E0,3.3333334E-1,9.760445E0,2.9285294E1,3.6075956E-1,6.799559E0,1.2842972E1,1.6072294E-1,1.1550828E-1,1.340082E-1,6.830647E-2,-4.4393208E-2,-1.0754999E-1,-1.607876E-1,-2.3437057E-1],"split_indices":[4,6,4,7,4,4,4,0,0,0,0,0,0,0,0],"split_type":[0,0,0,0,0,0,0,0,0,0,0,0,0,0,0],"sum_hessian":[1.0042959E3,5.451718E2,4.5912405E2,2.7182578E2,2.7334604E2,2.1101463E2,2.4810942E2,2.3077826E2,4.1047516E1,3.375018E1,2.3959587E2,1.5050755E2,6.050708E1,1.0429109E2,1.4381833E2],"tree_param":{"num_deleted":"0","num_feature":"17","num_nodes":"15","size_leaf_vector":"1"}},{"base_weights":[5.8981974E-2,3.05872E0,-4.428755E0,3.8620563E0,9.541242E-1,-2.2747004E0,-6.4086027E0,1.3931002E-1,8.590461E-2,5.2280042E-2,-4.2093545E-2,-1.719733E-2,-9.594751E-2,-1.5617694E-1,-2.1978486E-1],"categories":[],"categories_nodes":[],"categories_segments":[],"categories_sizes":[],"default_left":[0,0,0,0,0,0,0,0,0,0,0,0,0,0,0],"id":1,"left_children":[1,3,5,7,9,11,13,-1,-1,-1,-1,-1,-1,-1,-1],"loss_changes":[1.3824922E4,1.0242793E3,1.707374E3,3.0524316E2,3.2804596E2,3.0392798E2,1.3339453E2,0E0,0E0,0E0,0E0,0E0,0E0,0E0,0E0],"parents":[2147483647,0,0,1,1,2,2,3,3,4,4,5,5,6,6],"right_children":[2,4,6,8,10,12,14,-1,-1,-1,-1,-1,-1,-1,-1],"split_conditions":[5E0,3.4586463E0,2.088E1,1.1492434E0,3.5204575E0,1.2933977E1,2.7316072E1,1.3931002E-1,8.590461E-2,5.2280042E-2,-4.2093545E-2,-1.719733E-2,-9.594751E-2,-1.5617694E-1,-2.1978486E-1],"split_indices":[15,5,5,5,12,5,5,0,0,0,0,0,0,0,0],"split_type":[0,0,0,0,0,0,0,0,0,0,0,0,0,0,0],"sum_hessian":[1.02314734E3,6.138884E2,4.0925894E2,4.42401E2,1.714874E2,1.9854836E2,2.1071059E2,2.4294048E2,1.9946053E2,1.2952771E2,4.1959682E1,7.175714E1,1.26791214E2,9.790592E1,1.1280466E2],"tree_param":{"num_deleted":"0","num_feature":"17","num_nodes":"15","size_leaf_vector":"1"}},{"base_weights":[-1.8091941E-2,2.8965862E0,-5.0912046E0,4.288804E0,7.928201E-1,-3.3534145E0,-6.8604007E0,1.4434163E-1,9.244552E-2,3.422582E-2,-3.8130686E-2,-7.030902E-2,-1.3018271E-1,-1.6087657E-1,-2.2487506E-1],"categories":[],"categories_nodes":[],"categories_segments":[],"categories_sizes":[],"default_left":[0,0,0,0,0,0,0,0,0,0,0,0,0,0,0],"id":2,"left_children":[1,3,5,7,9,11,13,-1,-1,-1,-1,-1,-1,-1,-1],"loss_changes":[1.5255157E4,1.9009028E3,1.0914043E3,2.0251758E2,1.9212187E2,1.5991577E2,6.91416E1,0E0,0E0,0E0,0E0,0E0,0E0,0E0,0E0],"parents":[2147483647,0,0,1,1,2,2,3,3,4,4,5,5,6,6],"right_children":[2,4,6,8,10,12,14,-1,-1,-1,-1,-1,-1,-1,-1],"split_conditions":[5.3333335E0,1E0,1.25E1,3.3333334E-1,1.1E1,9E0,1.5E1,1.4434163E-1,9.244552E-2,3.422582E-2,-3.8130686E-2,-7.030902E-2,-1.3018271E-1,-1.6087657E-1,-2.2487506E-1],"split_indices":[6,6,6,6,1,6,6,0,0,0,0,0,0,0,0],"split_type":[0,0,0,0,0,0,0,0,0,0,0,0,0,0,0],"sum_hessian":[1.027404E3,6.528075E2,3.745966E2,3.910156E2,2.6179193E2,1.9246724E2,1.8212935E2,2.67569E2,1.234466E2,2.2560931E2,3.6182625E1,9.94262E1,9.304104E1,6.0811134E1,1.21318214E2],"tree_param":{"num_deleted":"0","num_feature":"17","num_nodes":"15","size_leaf_vector":"1"}},{"base_weights":[-0E0,2.9604828E0,-4.553681E0,4.727014E0,1.5459393E0,-2.8661015E0,-6.612828E0,6.888208E-2,1.4450097E-1,8.51401E-2,1.3019483E-2,-3.278175E-2,-1.18283145E-1,-1.2847494E-1,-2.1309035E-1],"categories":[],"categories_nodes":[],"categories_segments":[],"categories_sizes":[],"default_left":[0,0,0,0,0,0,0,0,0,0,0,0,0,0,0],"id":3,"left_children":[1,3,5,7,9,11,13,-1,-1,-1,-1,-1,-1,-1,-1],"loss_changes":[1.3934439E4,1.5376753E3,1.3585137E3,2.4017578E1,4.9579846E2,4.1647656E2,1.2359473E2,0E0,0E0,0E0,0E0,0E0,0E0,0E0,0E0],"parents":[2147483647,0,0,1,1,2,2,3,3,4,4,5,5,6,6],"right_children":[2,4,6,8,10,12,14,-1,-1,-1,-1,-1,-1,-1,-1],"split_conditions":[4.3333335E0,3.3333334E-1,1.25E1,2.8925926E1,2.1160243E0,1.4004552E1,1.9122623E1,6.888208E-2,1.4450097E-1,8.51401E-2,1.3019483E-2,-3.278175E-2,-1.18283145E-1,-1.2847494E-1,-2.1309035E-1],"split_indices":[6,6,6,9,5,5,5,0,0,0,0,0,0,0,0],"split_type":[0,0,0,0,0,0,0,0,0,0,0,0,0,0,0],"sum_hessian":[1.0295325E3,6.242263E2,4.053062E2,2.7486633E2,3.4935995E2,2.2591336E2,1.7939285E2,1.2466283E1,2.6240005E2,1.5932516E2,1.9003479E2,8.756803E1,1.3834534E2,3.527046E1,1.4412239E2],"tree_param":{"num_deleted":"0","num_feature":"17","num_nodes":"15","size_leaf_vector":"1"}},{"base_weights":[-2.3865465E-2,3.4173007E0,-4.281657E0,1.3554074E-1,2.3196099E0,-2.1095166E0,-6.486122E0,9.915679E-2,5.512331E-2,-7.03302E-2,5.6764446E-2,-1.7043084E-1,-2.3157595E-1],"categories":[],"categories_nodes":[],"categories_segments":[],"categories_sizes":[],"default_left":[0,0,0,0,0,0,0,0,0,0,0,0,0],"id":4,"left_children":[1,3,5,-1,7,9,11,-1,-1,-1,-1,-1,-1],"loss_changes":[1.4939841E4,6.463262E2,2.1387432E3,0E0,1.1405676E2,2.287998E2,1.087334E2,0E0,0E0,0E0,0E0,0E0,0E0],"parents":[2147483647,0,0,1,1,2,2,4,4,5,5,6,6],"right_children":[2,4,6,-1,8,10,12,-1,-1,-1,-1,-1,-1],"split_conditions":[3.140723E0,3.3333334E-1,1.07428E1,1.3554074E-1,7.259821E-1,1.2E1,1.6622509E1,9.915679E-2,5.512331E-2,-7.03302E-2,5.6764446E-2,-1.7043084E-1,-2.3157595E-1],"split_indices":[4,6,4,0,4,6,4,0,0,0,0,0,0],"split_type":[0,0,0,0,0,0,0,0,0,0,0,0,0],"sum_hessian":[1.01554596E3,5.615908E2,4.539551E2,2.763866E2,2.8520422E2,2.310823E2,2.228728E2,8.84802E1,1.9672401E2,2.195282E2,1.1554115E1,1.4260211E2,8.02707E1],"tree_param":{"num_deleted":"0","num_feature":"17","num_nodes":"13","size_leaf_vector":"1"}},{"base_weights":[-1.1113266E-1,3.095617E0,-4.450664E0,3.818843E0,1.0577898E0,-2.339519E0,-6.3271546E0,1.311987E-1,8.7589055E-2,7.808068E-3,8.780962E-2,-7.819382E-2,6.9144286E-2,-1.565219E-1,-2.0962787E-1],"categories":[],"categories_nodes":[],"categories_segments":[],"categories_sizes":[],"default_left":[0,0,0,0,0,0,0,0,0,0,0,0,0,0,0],"id":5,"left_children":[1,3,5,7,9,11,13,-1,-1,-1,-1,-1,-1,-1,-1],"loss_changes":[1.4308695E4,8.531245E2,1.684668E3,1.7658789E2,2.2806053E2,2.7218274E2,7.105762E1,0E0,0E0,0E0,0E0,0E0,0E0,0E0,0E0],"parents":[2147483647,0,0,1,1,2,2,3,3,4,4,5,5,6,6],"right_children":[2,4,6,8,10,12,14,-1,-1,-1,-1,-1,-1,-1,-1],"split_conditions":[3.8715868E0,1.4327624E0,1.07428E1,3.3333334E-1,3.2666667E0,1.2E1,1.3850195E1,1.311987E-1,8.7589055E-2,7.808068E-3,8.780962E-2,-7.819382E-2,6.9144286E-2,-1.565219E-1,-2.0962787E-1],"split_indices":[4,4,4,6,14,6,4,0,0,0,0,0,0,0,0],"split_type":[0,0,0,0,0,0,0,0,0,0,0,0,0,0,0],"sum_hessian":[1.0240594E3,5.889558E2,4.3510367E2,4.326712E2,1.562846E2,2.0736597E2,2.277377E2,2.6148788E2,1.7118335E2,1.1189249E2,4.4392128E1,1.9733212E2,1.0033837E1,9.273698E1,1.3500072E2],"tree_param":{"num_deleted":"0","num_feature":"17","num_nodes":"15","size_leaf_vector":"1"}},{"base_weights":[3.1899106E-2,3.0512187E0,-4.230292E0,4.175995E0,1.9904803E0,-2.127991E0,-5.978599E0,1.314161E-1,8.5108705E-2,7.848356E-2,3.1531367E-2,-1.3720847E-3,-8.124596E-2,-1.5189184E-1,-2.0877713E-1],"categories":[],"categories_nodes":[],"categories_segments":[],"categories_sizes":[],"default_left":[0,0,0,0,0,0,0,0,0,0,0,0,0,0,0],"id":6,"left_children":[1,3,5,7,9,11,13,-1,-1,-1,-1,-1,-1,-1,-1],"loss_changes":[1.2863835E4,6.695786E2,1.4810859E3,3.779004E1,1.6704944E2,2.2588214E2,1.07106445E2,0E0,0E0,0E0,0E0,0E0,0E0,0E0,0E0],"parents":[2147483647,0,0,1,1,2,2,3,3,4,4,5,5,6,6],"right_children":[2,4,6,8,10,12,14,-1,-1,-1,-1,-1,-1,-1,-1],"split_conditions":[3.6004632E0,3.3333334E-1,1.07428E1,2.9285294E1,1.5196086E0,4E0,1.5427178E1,1.314161E-1,8.5108705E-2,7.848356E-2,3.1531367E-2,-1.3720847E-3,-8.124596E-2,-1.5189184E-1,-2.0877713E-1],"split_indices":[4,6,4,7,4,2,4,0,0,0,0,0,0,0,0],"split_type":[0,0,0,0,0,0,0,0,0,0,0,0,0,0,0],"sum_hessian":[9.9578235E2,5.8348285E2,4.122995E2,2.7942715E2,3.0405566E2,1.8973074E2,2.2256876E2,2.3716342E2,4.2263737E1,1.7908879E2,1.2496688E2,4.2567795E1,1.4716295E2,1.2253443E2,1.0003432E2],"tree_param":{"num_deleted":"0","num_feature":"17","num_nodes":"15","size_leaf_vector":"1"}},{"base_weights":[2.096748E-1,3.1636872E0,-4.017787E0,4.1845903E0,2.217542E0,-2.3238966E0,-6.0300584E0,1.2044839E-1,1.6773733E-1,9.770679E-2,4.7369085E-2,-7.786594E-2,5.7138234E-2,-1.5135646E-1,-2.0528574E-1],"categories":[],"categories_nodes":[],"categories_segments":[],"categories_sizes":[],"default_left":[0,0,0,0,0,0,0,0,0,0,0,0,0,0,0],"id":7,"left_children":[1,3,5,7,9,11,13,-1,-1,-1,-1,-1,-1,-1,-1],"loss_changes":[1.2537154E4,5.3974805E2,1.3622515E3,2.9750977E0,1.8720837E2,2.7305225E2,5.675879E1,0E0,0E0,0E0,0E0,0E0,0E0,0E0,0E0],"parents":[2147483647,0,0,1,1,2,2,3,3,4,4,5,5,6,6],"right_children":[2,4,6,8,10,12,14,-1,-1,-1,-1,-1,-1,-1,-1],"split_conditions":[3.6004632E0,3.3333334E-1,1.1257612E1,6.0875607E-1,1.5580283E0,1.2333333E1,1.5427178E1,1.2044839E-1,1.6773733E-1,9.770679E-2,4.7369085E-2,-7.786594E-2,5.7138234E-2,-1.5135646E-1,-2.0528574E-1],"split_indices":[4,6,4,4,5,6,4,0,0,0,0,0,0,0,0],"split_type":[0,0,0,0,0,0,0,0,0,0,0,0,0,0,0],"sum_hessian":[1.0000391E3,5.892599E2,4.107792E2,2.791231E2,3.1013678E2,2.2591336E2,1.8486584E2,2.572311E2,2.1892008E1,1.1371682E2,1.9641997E2,2.1344708E2,1.2466283E1,9.12167E1,9.364915E1],"tree_param":{"num_deleted":"0","num_feature":"17","num_nodes":"15","size_leaf_vector":"1"}},{"base_weights":[7.354948E-2,2.4704669E0,-4.038338E0,3.5986543E0,7.555504E-1,-2.5044723E0,-5.6380463E0,1.2255944E-1,7.400081E-2,1.1841331E-4,5.2821666E-2,-4.251015E-2,-1.0522553E-1,-1.3155143E-1,-1.8704402E-1],"categories":[],"categories_nodes":[],"categories_segments":[],"categories_sizes":[],"default_left":[0,0,0,0,0,0,0,0,0,0,0,0,0,0,0],"id":8,"left_children":[1,3,5,7,9,11,13,-1,-1,-1,-1,-1,-1,-1,-1],"loss_changes":[9.961694E3,1.2221509E3,8.68353E2,1.7838867E2,1.904657E2,1.9199976E2,5.857715E1,0E0,0E0,0E0,0E0,0E0,0E0,0E0,0E0],"parents":[2147483647,0,0,1,1,2,2,3,3,4,4,5,5,6,6],"right_children":[2,4,6,8,10,12,14,-1,-1,-1,-1,-1,-1,-1,-1],"split_conditions":[5.3333335E0,1E0,1.25E1,3.3333334E-1,1.3E1,9E0,1.5333333E1,1.2255944E-1,7.400081E-2,1.1841331E-4,5.2821666E-2,-4.251015E-2,-1.0522553E-1,-1.3155143E-1,-1.8704402E-1],"split_indices":[6,6,6,6,2,6,6,0,0,0,0,0,0,0,0],"split_type":[0,0,0,0,0,0,0,0,0,0,0,0,0,0,0],"sum_hessian":[1.00703235E3,6.3699664E2,3.7003574E2,3.8219797E2,2.5479865E2,1.9216318E2,1.7787257E2,2.6240005E2,1.19797935E2,1.480751E2,1.0672354E2,9.547348E1,9.6689705E1,6.3851692E1,1.14020874E2],"tree_param":{"num_deleted":"0","num_feature":"17","num_nodes":"15","size_leaf_vector":"1"}},{"base_weights":[-3.2971654E-2,2.2089581E0,-3.9244387E0,3.3562799E0,4.4932616E-1,-2.5512102E0,-5.503716E0,1.14782564E-1,6.537258E-2,8.755772E-2,-2.4706195E-3,-4.3130595E-2,-1.0278397E-1,-9.524293E-2,-1.7773211E-1],"categories":[],"categories_nodes":[],"categories_segments":[],"categories_sizes":[],"default_left":[0,0,0,0,0,0,0,0,0,0,0,0,0,0,0],"id":9,"left_children":[1,3,5,7,9,11,13,-1,-1,-1,-1,-1,-1,-1,-1],"loss_changes":[8.585224E3,1.2487275E3,7.3626807E2,1.7959326E2,3.3331406E2,1.7224988E2,1.0582031E2,0E0,0E0,0E0,0E0,0E0,0E0,0E0,0E0],"parents":[2147483647,0,0,1,1,2,2,3,3,4,4,5,5,6,6],"right_children":[2,4,6,8,10,12,14,-1,-1,-1,-1,-1,-1,-1,-1],"split_conditions":[5.3333335E0,1E0,1.25E1,3.3333334E-1,1.6036575E0,1.6498158E1,1.9122623E1,1.14782564E-1,6.537258E-2,8.755772E-2,-2.4706195E-3,-4.3130595E-2,-1.0278397E-1,-9.524293E-2,-1.7773211E-1],"split_indices":[6,6,6,6,5,5,5,0,0,0,0,0,0,0,0],"split_type":[0,0,0,0,0,0,0,0,0,0,0,0,0,0,0],"sum_hessian":[9.7966736E2,6.217938E2,3.5787354E2,3.745966E2,2.4719727E2,1.9489969E2,1.6297385E2,2.633122E2,1.1128438E2,4.287185E1,2.0432541E2,8.908831E1,1.0581137E2,2.8277178E1,1.3469666E2],"tree_param":{"num_deleted":"0","num_feature":"17","num_nodes":"15","size_leaf_vector":"1"}},{"base_weights":[4.8750646E-2,2.6685245E0,-3.8124282E0,3.7394345E0,1.7632053E0,-2.2947805E0,-5.4733253E0,1.2677896E-1,9.459536E-2,8.3494365E-2,3.4641445E-2,-7.5836465E-2,2.7818557E-2,-1.4194815E-1,-1.9411625E-1],"categories":[],"categories_nodes":[],"categories_segments":[],"categories_sizes":[],"default_left":[0,0,0,0,0,0,0,0,0,0,0,0,0,0,0],"id":10,"left_children":[1,3,5,7,9,11,13,-1,-1,-1,-1,-1,-1,-1,-1],"loss_changes":[1.0098739E4,5.52876E2,9.760591E2,3.5567383E1,1.8885156E2,1.6924829E2,5.727881E1,0E0,0E0,0E0,0E0,0E0,0E0,0E0,0E0],"parents":[2147483647,0,0,1,1,2,2,3,3,4,4,5,5,6,6],"right_children":[2,4,6,8,10,12,14,-1,-1,-1,-1,-1,-1,-1,-1],"split_conditions":[4E0,3.3333334E-1,1.1257612E1,2.9618323E-1,1.5580283E0,1.2E1,1.6622509E1,1.2677896E-1,9.459536E-2,8.3494365E-2,3.4641445E-2,-7.5836465E-2,2.7818557E-2,-1.4194815E-1,-1.9411625E-1],"split_indices":[4,6,4,11,5,6,4,0,0,0,0,0,0,0,0],"split_type":[0,0,0,0,0,0,0,0,0,0,0,0,0,0,0],"sum_hessian":[9.945661E2,5.932126E2,4.013535E2,2.6787305E2,3.2533957E2,2.1283897E2,1.8851451E2,1.3773721E2,1.3013583E2,1.1766955E2,2.0767003E2,1.9946053E2,1.3378449E1,1.1584521E2,7.2669304E1],"tree_param":{"num_deleted":"0","num_feature":"17","num_nodes":"15","size_leaf_vector":"1"}},{"base_weights":[-1.0793226E-1,2.5878668E0,-3.703548E0,3.3476765E0,1.1088543E0,-2.1352158E0,-5.35592E0,1.07481554E-1,6.381255E-2,-2.0833703E-2,5.812482E-2,-7.11157E-2,6.0010776E-2,-1.3657919E-1,-1.821776E-1],"categories":[],"categories_nodes":[],"categories_segments":[],"categories_sizes":[],"default_left":[0,0,0,0,0,0,0,0,0,0,0,0,0,0,0],"id":11,"left_children":[1,3,5,7,9,11,13,-1,-1,-1,-1,-1,-1,-1,-1],"loss_changes":[9.911057E3,6.3990063E2,1.0980376E3,8.347461E1,3.0712735E2,2.3290161E2,4.5210938E1,0E0,0E0,0E0,0E0,0E0,0E0,0E0,0E0],"parents":[2147483647,0,0,1,1,2,2,3,3,4,4,5,5,6,6],"right_children":[2,4,6,8,10,12,14,-1,-1,-1,-1,-1,-1,-1,-1],"split_conditions":[3.8715868E0,1.150208E0,1.1257612E1,2.912E1,1.1428572E0,1.65E1,1.5427178E1,1.07481554E-1,6.381255E-2,-2.0833703E-2,5.812482E-2,-7.11157E-2,6.0010776E-2,-1.3657919E-1,-1.821776E-1],"split_indices":[4,4,4,7,14,14,4,0,0,0,0,0,0,0,0],"split_type":[0,0,0,0,0,0,0,0,0,0,0,0,0,0,0],"sum_hessian":[1.0182824E3,5.819625E2,4.363199E2,3.8189392E2,2.0006863E2,2.2682553E2,2.0949435E2,3.1560977E2,6.6284134E1,6.2331413E1,1.3773721E2,2.1587953E2,1.0946004E1,1.07027596E2,1.0246676E2],"tree_param":{"num_deleted":"0","num_feature":"17","num_nodes":"15","size_leaf_vector":"1"}},{"base_weights":[-2.2783045E-2,2.6040661E0,-3.5390368E0,3.5762053E0,1.7204044E0,-1.9199008E0,-5.381663E0,5.423096E-2,1.0998402E-1,6.780294E-2,2.7064038E-2,-3.1275388E-2,-8.512095E-2,-1.377934E-1,-1.8075253E-1],"categories":[],"categories_nodes":[],"categories_segments":[],"categories_sizes":[],"default_left":[0,0,0,0,0,0,0,0,0,0,0,0,0,0,0],"id":12,"left_children":[1,3,5,7,9,11,13,-1,-1,-1,-1,-1,-1,-1,-1],"loss_changes":[9.489248E3,4.8188403E2,1.2760713E3,1.9830322E1,1.2771057E2,1.7762042E2,2.6865234E1,0E0,0E0,0E0,0E0,0E0,0E0,0E0,0E0],"parents":[2147483647,0,0,1,1,2,2,3,3,4,4,5,5,6,6],"right_children":[2,4,6,8,10,12,14,-1,-1,-1,-1,-1,-1,-1,-1],"split_conditions":[3.4260523E0,3.3333334E-1,1.1257612E1,1E0,1.5196086E0,6.799559E0,1.5427178E1,5.423096E-2,1.0998402E-1,6.780294E-2,2.7064038E-2,-3.1275388E-2,-8.512095E-2,-1.377934E-1,-1.8075253E-1],"split_indices":[4,6,4,0,4,4,4,0,0,0,0,0,0,0,0],"split_type":[0,0,0,0,0,0,0,0,0,0,0,0,0,0,0],"sum_hessian":[1.02314734E3,5.856112E2,4.375361E2,2.7486633E2,3.107449E2,2.3564314E2,2.0189296E2,1.6419006E1,2.5844733E2,1.8364963E2,1.2709527E2,1.23750656E2,1.1189249E2,9.94262E1,1.0246676E2],"tree_param":{"num_deleted":"0","num_feature":"17","num_nodes":"15","size_leaf_vector":"1"}},{"base_weights":[-0E0,2.0985734E0,-3.6790605E0,3.092368E0,6.255698E-1,-2.3795412E0,-5.01808E0,1.0365136E-1,6.7230314E-2,7.8515925E-2,-2.497584E-4,-3.789234E-2,-9.652835E-2,-1.0338665E-1,-1.6045025E-1],"categories":[],"categories_nodes":[],"categories_segments":[],"categories_sizes":[],"default_left":[0,0,0,0,0,0,0,0,0,0,0,0,0,0,0],"id":13,"left_children":[1,3,5,7,9,11,13,-1,-1,-1,-1,-1,-1,-1,-1],"loss_changes":[8.0162095E3,9.5614526E2,6.176904E2,9.456665E1,3.4558762E2,1.6629102E2,4.0660156E1,0E0,0E0,0E0,0E0,0E0,0E0,0E0,0E0],"parents":[2147483647,0,0,1,1,2,2,3,3,4,4,5,5,6,6],"right_children":[2,4,6,8,10,12,14,-1,-1,-1,-1,-1,-1,-1,-1],"split_conditions":[5.3333335E0,1E0,1.25E1,3.3333334E-1,1.8312013E0,1.6261312E1,1.9122623E1,1.0365136E-1,6.7230314E-2,7.8515925E-2,-2.497584E-4,-3.789234E-2,-9.652835E-2,-1.0338665E-1,-1.6045025E-1],"split_indices":[6,6,6,6,5,5,5,0,0,0,0,0,0,0,0],"split_type":[0,0,0,0,0,0,0,0,0,0,0,0,0,0,0],"sum_hessian":[1.0340934E3,6.588886E2,3.752047E2,3.9131964E2,2.67569E2,1.9398752E2,1.8121718E2,2.6848117E2,1.2283849E2,6.3851692E1,2.037173E2,8.635181E1,1.07635704E2,3.648668E1,1.447305E2],"tree_param":{"num_deleted":"0","num_feature":"17","num_nodes":"15","size_leaf_vector":"1"}},{"base_weights":[-1.3055007E-2,2.4662004E0,-3.1968548E0,2.8593388E0,1.3526161E0,-1.7358332E0,-4.9785404E0,1.126018E-1,7.754576E-2,1.2698979E-2,1.0687328E-1,-5.8138177E-2,6.0140897E-2,-1.3054594E-1,-1.7456523E-1],"categories":[],"categories_nodes":[],"categories_segments":[],"categories_sizes":[],"default_left":[0,0,0,0,0,0,0,0,0,0,0,0,0,0,0],"id":14,"left_children":[1,3,5,7,9,11,13,-1,-1,-1,-1,-1,-1,-1,-1],"loss_changes":[8.051581E3,2.3470312E2,1.1324307E3,7.10813E1,3.0657742E2,1.9602551E2,3.420117E1,0E0,0E0,0E0,0E0,0E0,0E0,0E0,0E0],"parents":[2147483647,0,0,1,1,2,2,3,3,4,4,5,5,6,6],"right_children":[2,4,6,8,10,12,14,-1,-1,-1,-1,-1,-1,-1,-1],"split_conditions":[3.4260523E0,1.356815E0,1.1257612E1,1.0777491E-2,3.2666667E0,1.65E1,1.6622509E1,1.126018E-1,7.754576E-2,1.2698979E-2,1.0687328E-1,-5.8138177E-2,6.0140897E-2,-1.3054594E-1,-1.7456523E-1],"split_indices":[4,4,4,4,14,14,4,0,0,0,0,0,0,0,0],"split_type":[0,0,0,0,0,0,0,0,0,0,0,0,0,0,0],"sum_hessian":[1.01585E3,5.7101654E2,4.4483344E2,4.183806E2,1.5263594E2,2.4719727E2,1.9763618E2,9.060859E1,3.27772E2,1.097641E2,4.287185E1,2.359472E2,1.125006E1,1.2162227E2,7.6013916E1],"tree_param":{"num_deleted":"0","num_feature":"17","num_nodes":"15","size_leaf_vector":"1"}},{"base_weights":[-8.533941E-2,2.5096738E0,-3.1338732E0,3.3368437E0,1.6360962E0,-1.520488E0,-4.6850758E0,1.0515889E-1,6.913942E-2,6.924448E-2,3.5298415E-2,-5.209123E-2,6.7166775E-2,-1.009744E-1,-1.5168193E-1],"categories":[],"categories_nodes":[],"categories_segments":[],"categories_sizes":[],"default_left":[0,0,0,0,0,0,0,0,0,0,0,0,0,0,0],"id":15,"left_children":[1,3,5,7,9,11,13,-1,-1,-1,-1,-1,-1,-1,-1],"loss_changes":[7.997014E3,3.7342163E2,1.1372837E3,2.0416504E1,7.112256E1,1.9470557E2,6.438867E1,0E0,0E0,0E0,0E0,0E0,0E0,0E0,0E0],"parents":[2147483647,0,0,1,1,2,2,3,3,4,4,5,5,6,6],"right_children":[2,4,6,8,10,12,14,-1,-1,-1,-1,-1,-1,-1,-1],"split_conditions":[3.140723E0,3.3333334E-1,1.07428E1,2.9285294E1,1.5580283E0,1.2E1,1.9122623E1,1.0515889E-1,6.913942E-2,6.924448E-2,3.5298415E-2,-5.209123E-2,6.7166775E-2,-1.009744E-1,-1.5168193E-1],"split_indices":[4,6,4,7,5,6,5,0,0,0,0,0,0,0,0],"split_type":[0,0,0,0,0,0,0,0,0,0,0,0,0,0,0],"sum_hessian":[1.00672833E3,5.4365155E2,4.6307678E2,2.7517038E2,2.6848117E2,2.2956203E2,2.3351476E2,2.3077826E2,4.4392128E1,1.0398704E2,1.6449411E2,2.1861603E2,1.0946004E1,5.685841E1,1.7665634E2],"tree_param":{"num_deleted":"0","num_feature":"17","num_nodes":"15","size_leaf_vector":"1"}},{"base_weights":[-1.1568537E-1,2.1788015E0,-3.3415225E0,3.1408968E0,1.3601577E0,-1.4822239E0,-4.5000353E0,3.8266398E-2,9.713379E-2,6.694536E-2,1.9750038E-2,-1.0464314E-1,-2.9179666E-2,-9.967132E-2,-1.4736676E-1],"categories":[],"categories_nodes":[],"categories_segments":[],"categories_sizes":[],"default_left":[0,0,0,0,0,0,0,0,0,0,0,0,0,0,0],"id":16,"left_children":[1,3,5,7,9,11,13,-1,-1,-1,-1,-1,-1,-1,-1],"loss_changes":[7.606909E3,4.55083E2,8.952676E2,3.209619E1,1.923919E2,1.5571533E2,7.790723E1,0E0,0E0,0E0,0E0,0E0,0E0,0E0,0E0],"parents":[2147483647,0,0,1,1,2,2,3,3,4,4,5,5,6,6],"right_children":[2,4,6,8,10,12,14,-1,-1,-1,-1,-1,-1,-1,-1],"split_conditions":[4E0,3.3333334E-1,9.760445E0,1E0,1.8085237E0,2.675E0,2.088E1,3.8266398E-2,9.713379E-2,6.694536E-2,1.9750038E-2,-1.0464314E-1,-2.9179666E-2,-9.967132E-2,-1.4736676E-1],"split_indices":[4,6,4,0,5,15,5,0,0,0,0,0,0,0,0],"split_type":[0,0,0,0,0,0,0,0,0,0,0,0,0,0,0],"sum_hessian":[1.02345135E3,5.980775E2,4.2537387E2,2.7121765E2,3.2685983E2,1.6571034E2,2.5966354E2,1.5810895E1,2.5540677E2,1.4260211E2,1.8425774E2,3.0405567E1,1.3530478E2,7.327742E1,1.8638612E2],"tree_param":{"num_deleted":"0","num_feature":"17","num_nodes":"15","size_leaf_vector":"1"}},{"base_weights":[-4.991637E-2,2.2814088E0,-3.1452146E0,2.7138665E0,9.162016E-1,-1.7433894E0,-4.4777627E0,1.093237E-1,7.398303E-2,-4.1326075E-3,6.954226E-2,-5.9178017E-2,5.3746816E-2,-1.2012843E-1,-1.6257176E-1],"categories":[],"categories_nodes":[],"categories_segments":[],"categories_sizes":[],"default_left":[0,0,0,0,0,0,0,0,0,0,0,0,0,0,0],"id":17,"left_children":[1,3,5,7,9,11,13,-1,-1,-1,-1,-1,-1,-1,-1],"loss_changes":[7.4093047E3,3.3325317E2,7.9640576E2,7.174341E1,2.1909991E2,1.8495245E2,3.7706543E1,0E0,0E0,0E0,0E0,0E0,0E0,0E0,0E0],"parents":[2147483647,0,0,1,1,2,2,3,3,4,4,5,5,6,6],"right_children":[2,4,6,8,10,12,14,-1,-1,-1,-1,-1,-1,-1,-1],"split_conditions":[3.6004632E0,1.4825393E0,1.07428E1,2.4489796E-1,2.057143E0,1.65E1,1.751623E1,1.093237E-1,7.398303E-2,-4.1326075E-3,6.954226E-2,-5.9178017E-2,5.3746816E-2,-1.2012843E-1,-1.6257176E-1],"split_indices":[4,4,4,15,15,14,4,0,0,0,0,0,0,0,0],"split_type":[0,0,0,0,0,0,0,0,0,0,0,0,0,0,0],"sum_hessian":[1.02253925E3,5.831788E2,4.3936044E2,4.402726E2,1.4290616E2,2.1709575E2,2.222647E2,8.513559E1,3.5513702E2,8.179098E1,6.111519E1,2.0523758E2,1.1858171E1,1.562846E2,6.598008E1],"tree_param":{"num_deleted":"0","num_feature":"17","num_nodes":"15","size_leaf_vector":"1"}},{"base_weights":[6.448775E-2,1.8020996E0,-3.639394E0,2.3415875E0,-3.9634728E-1,-2.4525673E0,-4.444148E0,8.8167645E-2,5.2388504E-2,-3.861071E-2,5.6089737E-2,-8.6213015E-2,4.857225E-3,-9.204217E-2,-1.4241378E-1],"categories":[],"categories_nodes":[],"categories_segments":[],"categories_sizes":[],"default_left":[0,0,0,0,0,0,0,0,0,0,0,0,0,0,0],"id":18,"left_children":[1,3,5,7,9,11,13,-1,-1,-1,-1,-1,-1,-1,-1],"loss_changes":[6.5641465E3,8.2997363E2,2.753081E2,1.7915381E2,2.819938E2,1.5722162E2,3.466992E1,0E0,0E0,0E0,0E0,0E0,0E0,0E0,0E0],"parents":[2147483647,0,0,1,1,2,2,3,3,4,4,5,5,6,6],"right_children":[2,4,6,8,10,12,14,-1,-1,-1,-1,-1,-1,-1,-1],"split_conditions":[6.799559E0,2.8900514E0,1.1953453E1,3.3333334E-1,6.1923075E0,1.2333333E1,1.9122623E1,8.8167645E-2,5.2388504E-2,-3.861071E-2,5.6089737E-2,-8.6213015E-2,4.857225E-3,-9.204217E-2,-1.4241378E-1],"split_indices":[4,4,4,6,15,6,5,0,0,0,0,0,0,0,0],"split_type":[0,0,0,0,0,0,0,0,0,0,0,0,0,0,0],"sum_hessian":[1.0164581E3,6.929429E2,3.2351523E2,5.5702997E2,1.3591289E2,1.3500072E2,1.8851451E2,2.7243387E2,2.845961E2,9.881809E1,3.709479E1,1.1675738E2,1.824334E1,3.9223183E1,1.4929134E2],"tree_param":{"num_deleted":"0","num_feature":"17","num_nodes":"15","size_leaf_vector":"1"}},{"base_weights":[-6.521112E-2,2.0311766E0,-2.9994073E0,2.9046626E0,1.2904522E0,-1.7100973E0,-4.3219056E0,8.202383E-2,1.3303135E-1,6.294497E-2,1.9691838E-2,-5.8314458E-2,4.3388676E-2,-1.1693977E-1,-1.5527137E-1],"categories":[],"categories_nodes":[],"categories_segments":[],"categories_sizes":[],"default_left":[0,0,0,0,0,0,0,0,0,0,0,0,0,0,0],"id":19,"left_children":[1,3,5,7,9,11,13,-1,-1,-1,-1,-1,-1,-1,-1],"loss_changes":[6.2732627E3,3.6863232E2,6.982446E2,3.181665E1,1.5891205E2,1.6846991E2,1.6730225E1,0E0,0E0,0E0,0E0,0E0,0E0,0E0,0E0],"parents":[2147483647,0,0,1,1,2,2,3,3,4,4,5,5,6,6],"right_children":[2,4,6,8,10,12,14,-1,-1,-1,-1,-1,-1,-1,-1],"split_conditions":[3.8715868E0,3.3333334E-1,1.1257612E1,6.0875607E-1,1.8312013E0,1.2333333E1,1.7962486E1,8.202383E-2,1.3303135E-1,6.294497E-2,1.9691838E-2,-5.8314458E-2,4.3388676E-2,-1.1693977E-1,-1.5527137E-1],"split_indices":[4,6,4,4,5,6,4,0,0,0,0,0,0,0,0],"split_type":[0,0,0,0,0,0,0,0,0,0,0,0,0,0,0],"sum_hessian":[1.01554596E3,5.923004E2,4.2324548E2,2.6787305E2,3.244274E2,2.1739981E2,2.0584569E2,2.4719727E2,2.0675785E1,1.3925749E2,1.851699E2,2.037173E2,1.3682506E1,1.4655484E2,5.9290855E1],"tree_param":{"num_deleted":"0","num_feature":"17","num_nodes":"15","size_leaf_vector":"1"}},{"base_weights":[1.4184054E-2,1.8807434E0,-2.825998E0,3.0205789E0,9.631137E-1,-9.8622006E-1,-3.6320684E0,9.634817E-2,5.5585332E-2,5.6577474E-2,7.075475E-3,-3.749998E-2,4.703918E-2,-5.1387377E-2,-1.2011354E-1],"categories":[],"categories_nodes":[],"categories_segments":[],"categories_sizes":[],"default_left":[0,0,0,0,0,0,0,0,0,0,0,0,0,0,0],"id":20,"left_children":[1,3,5,7,9,11,13,-1,-1,-1,-1,-1,-1,-1,-1],"loss_changes":[5.407961E3,6.3071875E2,5.831218E2,3.884839E1,2.2659088E2,8.862215E1,1.7431372E2,0E0,0E0,0E0,0E0,0E0,0E0,0E0,0E0],"parents":[2147483647,0,0,1,1,2,2,3,3,4,4,5,5,6,6],"right_children":[2,4,6,8,10,12,14,-1,-1,-1,-1,-1,-1,-1,-1],"split_conditions":[4.3333335E0,3.3333334E-1,1.6642824E1,2.9285294E1,2.1160243E0,3.5714285E0,9E0,9.634817E-2,5.5585332E-2,5.6577474E-2,7.075475E-3,-3.749998E-2,4.703918E-2,-5.1387377E-2,-1.2011354E-1],"split_indices":[6,6,5,7,5,16,6,0,0,0,0,0,0,0,0],"split_type":[0,0,0,0,0,0,0,0,0,0,0,0,0,0,0],"sum_hessian":[1.0164581E3,6.1419244E2,4.0226566E2,2.709136E2,3.4327884E2,1.2466283E2,2.776028E2,2.2834581E2,4.2567795E1,1.4868323E2,1.9459563E2,1.1462899E2,1.0033837E1,4.773674E1,2.2986609E2],"tree_param":{"num_deleted":"0","num_feature":"17","num_nodes":"15","size_leaf_vector":"1"}},{"base_weights":[-5.5354312E-2,1.5418922E0,-2.8056965E0,2.318247E0,4.2301282E-1,-1.6492823E0,-3.8138366E0,1.02345675E-1,6.173754E-2,6.634278E-2,-4.594235E-3,-2.8320124E-2,-8.183138E-2,-4.4205718E-2,-1.2225494E-1],"categories":[],"categories_nodes":[],"categories_segments":[],"categories_sizes":[],"default_left":[0,0,0,0,0,0,0,0,0,0,0,0,0,0,0],"id":21,"left_children":[1,3,5,7,9,11,13,-1,-1,-1,-1,-1,-1,-1,-1],"loss_changes":[4.4384907E3,5.470907E2,4.0951416E2,8.185718E1,2.7785867E2,1.2246634E2,9.675659E1,0E0,0E0,0E0,0E0,0E0,0E0,0E0,0E0],"parents":[2147483647,0,0,1,1,2,2,3,3,4,4,5,5,6,6],"right_children":[2,4,6,8,10,12,14,-1,-1,-1,-1,-1,-1,-1,-1],"split_conditions":[5.3333335E0,1E0,2.088E1,1.4285715E-1,1.8312013E0,6.1926666E1,8.666667E0,1.02345675E-1,6.173754E-2,6.634278E-2,-4.594235E-3,-2.8320124E-2,-8.183138E-2,-4.4205718E-2,-1.2225494E-1],"split_indices":[6,6,5,15,5,9,6,0,0,0,0,0,0,0,0],"split_type":[0,0,0,0,0,0,0,0,0,0,0,0,0,0,0],"sum_hessian":[1.00581616E3,6.363885E2,3.6942764E2,3.7338037E2,2.6300815E2,1.7544012E2,1.9398752E2,6.5676025E1,3.0770435E2,6.3547634E1,1.9946053E2,1.09460045E2,6.598008E1,2.1587952E1,1.7239957E2],"tree_param":{"num_deleted":"0","num_feature":"17","num_nodes":"15","size_leaf_vector":"1"}},{"base_weights":[5.154988E-3,2.0186718E0,-2.2981966E0,1.855531E0,3.7348552E0,-1.0619414E0,-3.7680807E0,6.4563505E-2,-5.0329342E-3,1.5367003E-1,8.26519E-2,3.196957E-3,-4.581108E-2,-9.42063E-2,-1.328897E-1],"categories":[],"categories_nodes":[],"categories_segments":[],"categories_sizes":[],"default_left":[0,0,0,0,0,0,0,0,0,0,0,0,0,0,0],"id":22,"left_children":[1,3,5,7,9,11,13,-1,-1,-1,-1,-1,-1,-1,-1],"loss_changes":[4.640502E3,1.2458081E2,8.296621E2,3.005603E2,1.4954346E1,1.4272775E2,4.4891846E1,0E0,0E0,0E0,0E0,0E0,0E0,0E0,0E0],"parents":[2147483647,0,0,1,1,2,2,3,3,4,4,5,5,6,6],"right_children":[2,4,6,8,10,12,14,-1,-1,-1,-1,-1,-1,-1,-1],"split_conditions":[2.8900514E0,2.6666667E0,1.07428E1,1.4327624E0,2.0299294E0,4.445139E1,1.5427178E1,6.4563505E-2,-5.0329342E-3,1.5367003E-1,8.26519E-2,3.196957E-3,-4.581108E-2,-9.42063E-2,-1.328897E-1],"split_indices":[4,6,4,4,4,9,4,0,0,0,0,0,0,0,0],"split_type":[0,0,0,0,0,0,0,0,0,0,0,0,0,0,0],"sum_hessian":[9.9669446E2,5.324015E2,4.64293E2,4.910499E2,4.135157E1,2.5479865E2,2.0949435E2,4.2902255E2,6.2027355E1,1.2770338E1,2.8581232E1,7.175714E1,1.8304152E2,1.14933044E2,9.456131E1],"tree_param":{"num_deleted":"0","num_feature":"17","num_nodes":"15","size_leaf_vector":"1"}},{"base_weights":[4.2977957E-3,1.5033237E0,-3.245178E0,2.018636E0,-3.3064672E-1,-2.0994313E0,-3.8592181E0,7.85819E-2,4.2496104E-2,-4.1090548E-2,6.609847E-2,-8.187387E-2,-0E0,-1.02046974E-1,-1.3842939E-1],"categories":[],"categories_nodes":[],"categories_segments":[],"categories_sizes":[],"default_left":[0,0,0,0,0,0,0,0,0,0,0,0,0,0,0],"id":23,"left_children":[1,3,5,7,9,11,13,-1,-1,-1,-1,-1,-1,-1,-1],"loss_changes":[4.983524E3,6.672258E2,1.9896436E2,1.8286865E2,4.1150156E2,1.5768298E2,2.398169E1,0E0,0E0,0E0,0E0,0E0,0E0,0E0,0E0],"parents":[2147483647,0,0,1,1,2,2,3,3,4,4,5,5,6,6],"right_children":[2,4,6,8,10,12,14,-1,-1,-1,-1,-1,-1,-1,-1],"split_conditions":[6.799559E0,2.8900514E0,1.1257612E1,3.3333334E-1,6.5652175E0,1.1E1,1.7230732E1,7.85819E-2,4.2496104E-2,-4.1090548E-2,6.609847E-2,-8.187387E-2,-0E0,-1.02046974E-1,-1.3842939E-1],"split_indices":[4,4,4,6,15,6,4,0,0,0,0,0,0,0,0],"split_type":[0,0,0,0,0,0,0,0,0,0,0,0,0,0,0],"sum_hessian":[1.01980273E3,6.99024E2,3.2077872E2,5.4638806E2,1.5263594E2,1.1614927E2,2.0462947E2,2.6848117E2,2.779069E2,1.09460045E2,4.3175903E1,8.908831E1,2.7060955E1,1.3591289E2,6.871658E1],"tree_param":{"num_deleted":"0","num_feature":"17","num_nodes":"15","size_leaf_vector":"1"}},{"base_weights":[-2.0084186E-2,1.8342811E0,-2.6335459E0,2.350327E0,1.0756651E0,-1.4573686E0,-3.8209853E0,7.231299E-2,1.8201135E-2,-1.2854837E-2,4.9390916E-2,-5.0094843E-2,3.8570352E-2,-1.031668E-1,-1.3666147E-1],"categories":[],"categories_nodes":[],"categories_segments":[],"categories_sizes":[],"default_left":[0,0,0,0,0,0,0,0,0,0,0,0,0,0,0],"id":24,"left_children":[1,3,5,7,9,11,13,-1,-1,-1,-1,-1,-1,-1,-1],"loss_changes":[5.0221772E3,2.2515295E2,5.7943994E2,2.8469604E1,2.1880719E2,1.3345682E2,1.2197998E1,0E0,0E0,0E0,0E0,0E0,0E0,0E0,0E0],"parents":[2147483647,0,0,1,1,2,2,3,3,4,4,5,5,6,6],"right_children":[2,4,6,8,10,12,14,-1,-1,-1,-1,-1,-1,-1,-1],"split_conditions":[3.8715868E0,7.259821E-1,1.1257612E1,2.675E0,9.444444E-1,1.2333333E1,1.751623E1,7.231299E-2,1.8201135E-2,-1.2854837E-2,4.9390916E-2,-5.0094843E-2,3.8570352E-2,-1.031668E-1,-1.3666147E-1],"split_indices":[4,4,4,15,15,6,4,0,0,0,0,0,0,0,0],"split_type":[0,0,0,0,0,0,0,0,0,0,0,0,0,0,0],"sum_hessian":[1.031965E3,6.035505E2,4.2841443E2,3.5513702E2,2.4841348E2,2.1831197E2,2.1010246E2,3.4145453E2,1.3682505E1,6.750036E1,1.8091312E2,2.0402135E2,1.4290617E1,1.47467E2,6.2635468E1],"tree_param":{"num_deleted":"0","num_feature":"17","num_nodes":"15","size_leaf_vector":"1"}},{"base_weights":[-9.5570646E-2,1.902467E0,-2.4750323E0,2.479538E0,1.3272545E0,-1.424606E0,-3.5981455E0,6.697659E-2,1.0604899E-1,2.9757915E-2,7.997625E-2,-5.515112E-2,-4.4338307E-3,-9.274941E-2,-1.2905486E-1],"categories":[],"categories_nodes":[],"categories_segments":[],"categories_sizes":[],"default_left":[0,0,0,0,0,0,0,0,0,0,0,0,0,0,0],"id":25,"left_children":[1,3,5,7,9,11,13,-1,-1,-1,-1,-1,-1,-1,-1],"loss_changes":[4.708015E3,1.6430286E2,5.133103E2,4.1603516E1,1.1099066E2,1.2119165E2,3.572705E1,0E0,0E0,0E0,0E0,0E0,0E0,0E0,0E0],"parents":[2147483647,0,0,1,1,2,2,3,3,4,4,5,5,6,6],"right_children":[2,4,6,8,10,12,14,-1,-1,-1,-1,-1,-1,-1,-1],"split_conditions":[2.9710102E0,3.3333334E-1,1.09626875E1,3.2823548E-1,2.6666667E0,3.317205E-1,1.608823E1,6.697659E-2,1.0604899E-1,2.9757915E-2,7.997625E-2,-5.515112E-2,-4.4338307E-3,-9.274941E-2,-1.2905486E-1],"split_indices":[4,6,4,4,6,11,4,0,0,0,0,0,0,0,0],"split_type":[0,0,0,0,0,0,0,0,0,0,0,0,0,0,0],"sum_hessian":[9.8605255E2,5.357461E2,4.5030646E2,2.6240005E2,2.7334604E2,2.359472E2,2.1435925E2,2.1922414E2,4.3175903E1,2.2256876E2,5.0777298E1,1.763523E2,5.959491E1,1.3256827E2,8.179098E1],"tree_param":{"num_deleted":"0","num_feature":"17","num_nodes":"15","size_leaf_vector":"1"}},{"base_weights":[7.7456445E-2,1.8752105E0,-2.4597487E0,2.2081268E0,8.917445E-1,-1.1735952E0,-3.3127468E0,6.0180087E-2,9.609043E-2,-5.57129E-2,4.7058057E-2,-8.717023E-2,-2.1167018E-2,-8.750799E-2,-1.2937073E-1],"categories":[],"categories_nodes":[],"categories_segments":[],"categories_sizes":[],"default_left":[0,0,0,0,0,0,0,0,0,0,0,0,0,0,0],"id":26,"left_children":[1,3,5,7,9,11,13,-1,-1,-1,-1,-1,-1,-1,-1],"loss_changes":[4.6105264E3,1.8374658E2,4.4277734E2,6.5117676E1,2.929607E2,1.2734488E2,5.922168E1,0E0,0E0,0E0,0E0,0E0,0E0,0E0,0E0],"parents":[2147483647,0,0,1,1,2,2,3,3,4,4,5,5,6,6],"right_children":[2,4,6,8,10,12,14,-1,-1,-1,-1,-1,-1,-1,-1],"split_conditions":[3.8715868E0,1.4825393E0,9.760445E0,3.6302013E0,9.444444E-1,2.675E0,1.7962486E1,6.0180087E-2,9.609043E-2,-5.57129E-2,4.7058057E-2,-8.717023E-2,-2.1167018E-2,-8.750799E-2,-1.2937073E-1],"split_indices":[4,4,4,12,15,15,4,0,0,0,0,0,0,0,0],"split_type":[0,0,0,0,0,0,0,0,0,0,0,0,0,0,0],"sum_hessian":[1.00703235E3,5.9017206E2,4.1686032E2,4.375361E2,1.5263594E2,1.6905495E2,2.4780537E2,3.703398E2,6.7196304E1,2.8885288E1,1.23750656E2,3.2838013E1,1.3621693E2,1.845618E2,6.324358E1],"tree_param":{"num_deleted":"0","num_feature":"17","num_nodes":"15","size_leaf_vector":"1"}},{"base_weights":[-4.3107685E-2,1.6913389E0,-2.1524343E0,2.335273E0,1.0668185E0,-1.0190289E0,-3.2554762E0,2.2206848E-2,7.322814E-2,2.3076544E-2,1.0197284E-1,1.7721293E-2,-4.8164573E-2,-8.704441E-2,-1.2522037E-1],"categories":[],"categories_nodes":[],"categories_segments":[],"categories_sizes":[],"default_left":[0,0,0,0,0,0,0,0,0,0,0,0,0,0,0],"id":27,"left_children":[1,3,5,7,9,11,13,-1,-1,-1,-1,-1,-1,-1,-1],"loss_changes":[3.7108865E3,2.1180432E2,5.5750903E2,3.5611084E1,1.8598965E2,2.2080844E2,3.6526123E1,0E0,0E0,0E0,0E0,0E0,0E0,0E0,0E0],"parents":[2147483647,0,0,1,1,2,2,3,3,4,4,5,5,6,6],"right_children":[2,4,6,8,10,12,14,-1,-1,-1,-1,-1,-1,-1,-1],"split_conditions":[3.140723E0,3.3333334E-1,1.07428E1,2E0,3E0,4.445139E1,1.7962486E1,2.2206848E-2,7.322814E-2,2.3076544E-2,1.0197284E-1,1.7721293E-2,-4.8164573E-2,-8.704441E-2,-1.2522037E-1],"split_indices":[4,6,4,0,6,9,4,0,0,0,0,0,0,0,0],"split_type":[0,0,0,0,0,0,0,0,0,0,0,0,0,0,0],"sum_hessian":[1.01007294E3,5.5398944E2,4.560835E2,2.6848117E2,2.8550827E2,2.277377E2,2.2834581E2,1.8851452E1,2.496297E2,2.5631894E2,2.9189344E1,5.9898968E1,1.6783873E2,1.7239957E2,5.5946243E1],"tree_param":{"num_deleted":"0","num_feature":"17","num_nodes":"15","size_leaf_vector":"1"}},{"base_weights":[-2.119708E-2,1.7044411E0,-2.1884406E0,1.9998348E0,5.6464314E-1,-1.1759198E0,-3.2432253E0,8.455613E-2,5.420033E-2,-2.900975E-2,5.5986885E-2,-4.2557824E-2,2.4472054E-2,-6.1048657E-2,-1.0689765E-1],"categories":[],"categories_nodes":[],"categories_segments":[],"categories_sizes":[],"default_left":[0,0,0,0,0,0,0,0,0,0,0,0,0,0,0],"id":28,"left_children":[1,3,5,7,9,11,13,-1,-1,-1,-1,-1,-1,-1,-1],"loss_changes":[3.8332573E3,1.8451733E2,4.6919165E2,5.180371E1,2.4761249E2,1.1764383E2,5.9609863E1,0E0,0E0,0E0,0E0,0E0,0E0,0E0,0E0],"parents":[2147483647,0,0,1,1,2,2,3,3,4,4,5,5,6,6],"right_children":[2,4,6,8,10,12,14,-1,-1,-1,-1,-1,-1,-1,-1],"split_conditions":[3.3363798E0,1.4825393E0,1.07428E1,1.0519971E-3,1.8E0,1.3833333E1,1.9122623E1,8.455613E-2,5.420033E-2,-2.900975E-2,5.5986885E-2,-4.2557824E-2,2.4472054E-2,-6.1048657E-2,-1.0689765E-1],"split_indices":[4,4,4,4,14,14,5,0,0,0,0,0,0,0,0],"split_type":[0,0,0,0,0,0,0,0,0,0,0,0,0,0,0],"sum_hessian":[1.0207149E3,5.67976E2,4.527389E2,4.4848212E2,1.1949388E2,2.3412286E2,2.1861603E2,7.8446365E1,3.7003574E2,5.4425964E1,6.506792E1,2.1010246E2,2.4020397E1,5.0169186E1,1.6844684E2],"tree_param":{"num_deleted":"0","num_feature":"17","num_nodes":"15","size_leaf_vector":"1"}},{"base_weights":[-7.329948E-2,1.427184E0,-2.3326995E0,2.2979968E0,7.362985E-1,-1.4480135E0,-3.2544591E0,6.3992925E-2,1.18142635E-1,2.3469476E-3,3.967184E-2,1.2604039E-2,-5.3997464E-2,-8.594208E-2,-1.1609519E-1],"categories":[],"categories_nodes":[],"categories_segments":[],"categories_sizes":[],"default_left":[0,0,0,0,0,0,0,0,0,0,0,0,0,0,0],"id":29,"left_children":[1,3,5,7,9,11,13,-1,-1,-1,-1,-1,-1,-1,-1],"loss_changes":[3.4705159E3,3.6017078E2,3.145547E2,4.3961792E1,1.3074895E2,1.4450882E2,1.1726807E1,0E0,0E0,0E0,0E0,0E0,0E0,0E0,0E0],"parents":[2147483647,0,0,1,1,2,2,3,3,4,4,5,5,6,6],"right_children":[2,4,6,8,10,12,14,-1,-1,-1,-1,-1,-1,-1,-1],"split_conditions":[4.433955E0,3.3333334E-1,1.1953453E1,5.991223E-1,1.2E1,3E0,1.7230732E1,6.3992925E-2,1.18142635E-1,2.3469476E-3,3.967184E-2,1.2604039E-2,-5.3997464E-2,-8.594208E-2,-1.1609519E-1],"split_indices":[4,6,4,4,2,2,4,0,0,0,0,0,0,0,0],"split_type":[0,0,0,0,0,0,0,0,0,0,0,0,0,0,0],"sum_hessian":[1.0191946E3,6.123681E2,4.0682648E2,2.67569E2,3.4479913E2,2.113187E2,1.955078E2,2.4841348E2,1.9155508E1,1.6510223E2,1.796969E2,3.253396E1,1.7878473E2,1.2861555E2,6.689225E1],"tree_param":{"num_deleted":"0","num_feature":"17","num_nodes":"15","size_leaf_vector":"1"}},{"base_weights":[1.178952E-2,1.2780025E0,-2.0566616E0,1.8866427E0,3.2242277E-1,-6.8769395E-1,-2.5972931E0,6.434776E-2,3.7060857E-2,-2.4503484E-2,1.9910228E-2,-4.7793046E-2,2.9565223E-2,-6.1049387E-2,-1.00322574E-1],"categories":[],"categories_nodes":[],"categories_segments":[],"categories_sizes":[],"default_left":[0,0,0,0,0,0,0,0,0,0,0,0,0,0,0],"id":30,"left_children":[1,3,5,7,9,11,13,-1,-1,-1,-1,-1,-1,-1,-1],"loss_changes":[2.6337144E3,3.5769696E2,2.7217993E2,5.1851562E1,9.670915E1,1.7366992E2,8.9726074E1,0E0,0E0,0E0,0E0,0E0,0E0,0E0,0E0],"parents":[2147483647,0,0,1,1,2,2,3,3,4,4,5,5,6,6],"right_children":[2,4,6,8,10,12,14,-1,-1,-1,-1,-1,-1,-1,-1],"split_conditions":[5.3333335E0,1E0,9E0,3.3333334E-1,5E0,2.6697435E1,1.5333333E1,6.434776E-2,3.7060857E-2,-2.4503484E-2,1.9910228E-2,-4.7793046E-2,2.9565223E-2,-6.1049387E-2,-1.00322574E-1],"split_indices":[6,6,6,6,2,7,6,0,0,0,0,0,0,0,0],"split_type":[0,0,0,0,0,0,0,0,0,0,0,0,0,0,0],"sum_hessian":[1.0021675E3,6.22706E2,3.794615E2,3.779412E2,2.4476482E2,1.097641E2,2.696974E2,2.6513654E2,1.1280466E2,5.4425964E1,1.9033885E2,7.2061195E1,3.7702904E1,1.5962923E2,1.1006815E2],"tree_param":{"num_deleted":"0","num_feature":"17","num_nodes":"15","size_leaf_vector":"1"}},{"base_weights":[-1.3313463E-2,1.5464894E0,-2.0263386E0,2.2656784E0,8.9809763E-1,-9.3640447E-1,-2.8095958E0,7.617956E-2,4.4330038E-2,1.18161915E-2,5.522129E-2,-4.3185253E-2,4.5780566E-2,-7.403443E-2,-1.0995976E-1],"categories":[],"categories_nodes":[],"categories_segments":[],"categories_sizes":[],"default_left":[0,0,0,0,0,0,0,0,0,0,0,0,0,0,0],"id":31,"left_children":[1,3,5,7,9,11,13,-1,-1,-1,-1,-1,-1,-1,-1],"loss_changes":[3.1516428E3,2.5298157E2,3.6169885E2,4.160547E1,1.3752223E2,2.3647345E2,4.3682495E1,0E0,0E0,0E0,0E0,0E0,0E0,0E0,0E0],"parents":[2147483647,0,0,1,1,2,2,3,3,4,4,5,5,6,6],"right_children":[2,4,6,8,10,12,14,-1,-1,-1,-1,-1,-1,-1,-1],"split_conditions":[3.6004632E0,3.3333334E-1,9.760445E0,1.8E1,1.8571428E0,8.333333E0,1.751623E1,7.617956E-2,4.4330038E-2,1.18161915E-2,5.522129E-2,-4.3185253E-2,4.5780566E-2,-7.403443E-2,-1.0995976E-1],"split_indices":[4,6,4,2,15,6,4,0,0,0,0,0,0,0,0],"split_type":[0,0,0,0,0,0,0,0,0,0,0,0,0,0,0],"sum_hessian":[9.9943097E2,5.6280707E2,4.3662393E2,2.6300815E2,2.997989E2,1.8547395E2,2.5114998E2,1.9003479E2,7.297336E1,1.9854836E2,1.0125054E2,1.5537245E2,3.0101511E1,1.8669019E2,6.44598E1],"tree_param":{"num_deleted":"0","num_feature":"17","num_nodes":"15","size_leaf_vector":"1"}},{"base_weights":[4.345099E-3,1.6207837E0,-1.8238927E0,1.974792E0,9.127006E-1,-4.3902692E-1,-2.514877E0,5.4132447E-2,9.257103E-2,2.224657E-3,7.02884E-2,-2.526629E-2,1.3386384E-1,-5.340353E-2,-9.346408E-2],"categories":[],"categories_nodes":[],"categories_segments":[],"categories_sizes":[],"default_left":[0,0,0,0,0,0,0,0,0,0,0,0,0,0,0],"id":32,"left_children":[1,3,5,7,9,11,13,-1,-1,-1,-1,-1,-1,-1,-1],"loss_changes":[3.1006511E3,1.3036963E2,4.625299E2,4.875244E1,2.2440135E2,3.304805E2,1.2330029E2,0E0,0E0,0E0,0E0,0E0,0E0,0E0,0E0],"parents":[2147483647,0,0,1,1,2,2,3,3,4,4,5,5,6,6],"right_children":[2,4,6,8,10,12,14,-1,-1,-1,-1,-1,-1,-1,-1],"split_conditions":[2.8900514E0,7.259821E-1,6.931059E0,6.666667E-1,5.555556E-1,7.3333335E0,1.2068801E1,5.4132447E-2,9.257103E-2,2.224657E-3,7.02884E-2,-2.526629E-2,1.3386384E-1,-5.340353E-2,-9.346408E-2],"split_indices":[4,4,4,6,16,6,4,0,0,0,0,0,0,0,0],"split_type":[0,0,0,0,0,0,0,0,0,0,0,0,0,0,0],"sum_hessian":[1.0453434E3,5.555097E2,4.8983368E2,3.6608304E2,1.8942668E2,1.6510223E2,3.2473145E2,3.2351523E2,4.2567795E1,1.2162227E2,6.780441E1,1.5446028E2,1.0641949E1,1.5111566E2,1.7361578E2],"tree_param":{"num_deleted":"0","num_feature":"17","num_nodes":"15","size_leaf_vector":"1"}},{"base_weights":[-1.73044E-2,1.3026739E0,-2.0160725E0,1.8353989E0,8.7754065E-1,-1.1420356E0,-2.8318493E0,6.163252E-2,1.6862046E-2,-1.7968897E-3,4.070629E-2,-4.278147E-2,7.516354E-2,-7.579838E-2,-1.0524269E-1],"categories":[],"categories_nodes":[],"categories_segments":[],"categories_sizes":[],"default_left":[0,0,0,0,0,0,0,0,0,0,0,0,0,0,0],"id":33,"left_children":[1,3,5,7,9,11,13,-1,-1,-1,-1,-1,-1,-1,-1],"loss_changes":[2.703335E3,1.309076E2,2.764347E2,6.763574E1,1.5940945E2,2.1368707E2,1.3230957E1,0E0,0E0,0E0,0E0,0E0,0E0,0E0,0E0],"parents":[2147483647,0,0,1,1,2,2,3,3,4,4,5,5,6,6],"right_children":[2,4,6,8,10,12,14,-1,-1,-1,-1,-1,-1,-1,-1],"split_conditions":[4.433955E0,3.3333334E-1,1.1257612E1,2.912E1,9.444444E-1,1.53E1,1.7962486E1,6.163252E-2,1.6862046E-2,-1.7968897E-3,4.070629E-2,-4.278147E-2,7.516354E-2,-7.579838E-2,-1.0524269E-1],"split_indices":[4,6,4,7,15,14,4,0,0,0,0,0,0,0,0],"split_type":[0,0,0,0,0,0,0,0,0,0,0,0,0,0,0],"sum_hessian":[1.02010675E3,6.1419244E2,4.059143E2,2.67569E2,3.4662347E2,1.9946053E2,2.064538E2,2.2591336E2,4.165563E1,1.1645332E2,2.3017014E2,1.8669019E2,1.2770338E1,1.5081161E2,5.564219E1],"tree_param":{"num_deleted":"0","num_feature":"17","num_nodes":"15","size_leaf_vector":"1"}},{"base_weights":[3.4350627E-3,1.3959503E0,-1.8690493E0,2.6536577E0,1.1963018E0,-1.1350478E0,-2.8284824E0,2.548453E-2,8.995707E-2,3.0584518E-2,7.155549E-2,-6.1424837E-2,-1.8477647E-2,-7.371752E-2,-1.0352886E-1],"categories":[],"categories_nodes":[],"categories_segments":[],"categories_sizes":[],"default_left":[0,0,0,0,0,0,0,0,0,0,0,0,0,0,0],"id":34,"left_children":[1,3,5,7,9,11,13,-1,-1,-1,-1,-1,-1,-1,-1],"loss_changes":[2.6955405E3,1.3502661E2,2.9582703E2,3.594513E1,9.708746E1,1.124939E2,1.4756714E1,0E0,0E0,0E0,0E0,0E0,0E0,0E0,0E0],"parents":[2147483647,0,0,1,1,2,2,3,3,4,4,5,5,6,6],"right_children":[2,4,6,8,10,12,14,-1,-1,-1,-1,-1,-1,-1,-1],"split_conditions":[3.8715868E0,1.0519971E-3,1.1953453E1,3.1981367E-1,3.6875E0,6.1923075E0,1.7962486E1,2.548453E-2,8.995707E-2,3.0584518E-2,7.155549E-2,-6.1424837E-2,-1.8477647E-2,-7.371752E-2,-1.0352886E-1],"split_indices":[4,4,4,12,14,15,4,0,0,0,0,0,0,0,0],"split_type":[0,0,0,0,0,0,0,0,0,0,0,0,0,0,0],"sum_hessian":[1.0301406E3,5.916923E2,4.3844827E2,7.631797E1,5.153744E2,2.5206215E2,1.8638612E2,1.4290616E1,6.2027355E1,4.5334702E2,6.2027355E1,8.7872086E1,1.6419006E2,1.2496688E2,6.1419247E1],"tree_param":{"num_deleted":"0","num_feature":"17","num_nodes":"15","size_leaf_vector":"1"}},{"base_weights":[-1.0753935E-1,1.0018427E0,-2.4806962E0,1.3918077E0,-3.6195078E-1,-7.324614E-2,-2.6527207E0,5.422999E-2,2.9470898E-2,-3.4769904E-2,4.840897E-2,-5.942275E-2,5.8982704E-2,-5.793546E-2,-8.6809516E-2],"categories":[],"categories_nodes":[],"categories_segments":[],"categories_sizes":[],"default_left":[0,0,0,0,0,0,0,0,0,0,0,0,0,0,0],"id":35,"left_children":[1,3,5,7,9,11,13,-1,-1,-1,-1,-1,-1,-1,-1],"loss_changes":[2.6836577E3,3.718512E2,1.2871643E2,8.294861E1,2.4632562E2,1.0312495E2,3.1744385E1,0E0,0E0,0E0,0E0,0E0,0E0,0E0,0E0],"parents":[2147483647,0,0,1,1,2,2,3,3,4,4,5,5,6,6],"right_children":[2,4,6,8,10,12,14,-1,-1,-1,-1,-1,-1,-1,-1],"split_conditions":[6.931059E0,2.8900514E0,1.2933977E1,3.3333334E-1,6.1923075E0,6.875E0,1.9122623E1,5.422999E-2,2.9470898E-2,-3.4769904E-2,4.840897E-2,-5.942275E-2,5.8982704E-2,-5.793546E-2,-8.6809516E-2],"split_indices":[4,4,5,6,15,14,5,0,0,0,0,0,0,0,0],"split_type":[0,0,0,0,0,0,0,0,0,0,0,0,0,0,0],"sum_hessian":[1.0143297E3,6.914226E2,3.2290714E2,5.387866E2,1.5263594E2,2.250012E1,3.00407E2,2.6148788E2,2.7729877E2,1.1006815E2,4.2567795E1,1.2162227E1,1.0337893E1,8.179098E1,2.1861603E2],"tree_param":{"num_deleted":"0","num_feature":"17","num_nodes":"15","size_leaf_vector":"1"}},{"base_weights":[3.472668E-2,1.3123038E0,-1.6394506E0,1.6238186E0,5.173088E-1,-8.190558E-1,-2.4908304E0,7.2749674E-2,4.2966958E-2,-1.7256068E-2,5.2602414E-2,-3.220233E-2,3.722921E-2,-6.342368E-2,-9.463826E-2],"categories":[],"categories_nodes":[],"categories_segments":[],"categories_sizes":[],"default_left":[0,0,0,0,0,0,0,0,0,0,0,0,0,0,0],"id":36,"left_children":[1,3,5,7,9,11,13,-1,-1,-1,-1,-1,-1,-1,-1],"loss_changes":[2.2002285E3,1.3873285E2,2.999121E2,4.9351562E1,2.3291249E2,1.2318472E2,3.0148804E1,0E0,0E0,0E0,0E0,0E0,0E0,0E0,0E0],"parents":[2147483647,0,0,1,1,2,2,3,3,4,4,5,5,6,6],"right_children":[2,4,6,8,10,12,14,-1,-1,-1,-1,-1,-1,-1,-1],"split_conditions":[3.4260523E0,1.150208E0,1.07428E1,6.25E-2,1.8571428E0,1.3777778E1,1.7230732E1,7.2749674E-2,4.2966958E-2,-1.7256068E-2,5.2602414E-2,-3.220233E-2,3.722921E-2,-6.342368E-2,-9.463826E-2],"split_indices":[4,4,4,15,15,14,4,0,0,0,0,0,0,0,0],"split_type":[0,0,0,0,0,0,0,0,0,0,0,0,0,0,0],"sum_hessian":[1.0249717E3,5.822666E2,4.4270505E2,4.1503598E2,1.6723062E2,2.2864986E2,2.1405519E2,7.3581474E1,3.4145453E2,8.84802E1,7.875042E1,2.0523758E2,2.3412287E1,1.4381833E2,7.023686E1],"tree_param":{"num_deleted":"0","num_feature":"17","num_nodes":"15","size_leaf_vector":"1"}},{"base_weights":[-4.8138052E-2,1.084464E0,-1.794955E0,1.7027144E0,5.787665E-1,-1.1014726E0,-2.5562518E0,4.573584E-2,8.349746E-2,3.691664E-2,4.219709E-3,-4.1335978E-2,6.338846E-2,-4.2796962E-2,-8.3476126E-2],"categories":[],"categories_nodes":[],"categories_segments":[],"categories_sizes":[],"default_left":[0,0,0,0,0,0,0,0,0,0,0,0,0,0,0],"id":37,"left_children":[1,3,5,7,9,11,13,-1,-1,-1,-1,-1,-1,-1,-1],"loss_changes":[2.0130621E3,1.8611725E2,1.9855737E2,3.5736633E1,9.507327E1,1.9495483E2,3.17229E1,0E0,0E0,0E0,0E0,0E0,0E0,0E0,0E0],"parents":[2147483647,0,0,1,1,2,2,3,3,4,4,5,5,6,6],"right_children":[2,4,6,8,10,12,14,-1,-1,-1,-1,-1,-1,-1,-1],"split_conditions":[4.433955E0,3.3333334E-1,1.1725312E1,4.116413E-1,1.8085237E0,1.2E1,1.9122623E1,4.573584E-2,8.349746E-2,3.691664E-2,4.219709E-3,-4.1335978E-2,6.338846E-2,-4.2796962E-2,-8.3476126E-2],"split_indices":[4,6,4,4,5,6,5,0,0,0,0,0,0,0,0],"split_type":[0,0,0,0,0,0,0,0,0,0,0,0,0,0,0],"sum_hessian":[1.01280945E3,6.1419244E2,3.9861697E2,2.7243387E2,3.4175858E2,2.1253491E2,1.8608208E2,2.3959587E2,3.2838013E1,1.3408855E2,2.0767003E2,1.9733212E2,1.5202784E1,3.49664E1,1.5111566E2],"tree_param":{"num_deleted":"0","num_feature":"17","num_nodes":"15","size_leaf_vector":"1"}},{"base_weights":[-1.113216E-1,1.1720219E0,-1.6620432E0,1.0190511E0,2.4454603E0,-1.0300537E0,-2.590494E0,3.8767483E-2,-3.9590064E-2,1.2534465E-2,1.0742672E-1,-3.689682E-2,2.589081E-2,-4.808599E-2,-8.452832E-2],"categories":[],"categories_nodes":[],"categories_segments":[],"categories_sizes":[],"default_left":[0,0,0,0,0,0,0,0,0,0,0,0,0,0,0],"id":38,"left_children":[1,3,5,7,9,11,13,-1,-1,-1,-1,-1,-1,-1,-1],"loss_changes":[2.0541067E3,9.7933105E1,2.619215E2,3.2809607E2,1.2171698E2,1.0989957E2,2.4041748E1,0E0,0E0,0E0,0E0,0E0,0E0,0E0,0E0],"parents":[2147483647,0,0,1,1,2,2,3,3,4,4,5,5,6,6],"right_children":[2,4,6,8,10,12,14,-1,-1,-1,-1,-1,-1,-1,-1],"split_conditions":[2.8900514E0,2.6666667E0,1.2E1,1.6E0,3.8558953E0,1.2E1,1.890406E1,3.8767483E-2,-3.9590064E-2,1.2534465E-2,1.0742672E-1,-3.689682E-2,2.589081E-2,-4.808599E-2,-8.452832E-2],"split_indices":[4,6,4,4,5,6,5,0,0,0,0,0,0,0,0],"split_type":[0,0,0,0,0,0,0,0,0,0,0,0,0,0,0],"sum_hessian":[1.0277081E3,5.618949E2,4.658133E2,5.062527E2,5.564219E1,2.8094745E2,1.8486584E2,4.5486728E2,5.1385406E1,2.1587952E1,3.4054234E1,2.5571082E2,2.523662E1,3.9223183E1,1.4564267E2],"tree_param":{"num_deleted":"0","num_feature":"17","num_nodes":"15","size_leaf_vector":"1"}},{"base_weights":[-5.002748E-3,9.520376E-1,-1.5195187E0,1.6549987E0,3.9382032E-1,-1.3779348E-1,-1.9511716E0,3.0222023E-3,5.2374024E-2,3.3087928E-2,-1.2647479E-3,6.03218E-2,-1.388808E-2,-3.8759932E-2,-6.724793E-2],"categories":[],"categories_nodes":[],"categories_segments":[],"categories_sizes":[],"default_left":[0,0,0,0,0,0,0,0,0,0,0,0,0,0,0],"id":39,"left_children":[1,3,5,7,9,11,13,-1,-1,-1,-1,-1,-1,-1,-1],"loss_changes":[1.4749467E3,2.387821E2,2.3059564E2,3.4514465E1,1.1074594E2,6.664626E1,4.445166E1,0E0,0E0,0E0,0E0,0E0,0E0,0E0,0E0],"parents":[2147483647,0,0,1,1,2,2,3,3,4,4,5,5,6,6],"right_children":[2,4,6,8,10,12,14,-1,-1,-1,-1,-1,-1,-1,-1],"split_conditions":[4.3333335E0,3.3333334E-1,1.4396448E1,1E0,1.7155925E0,3.6684341E0,4.692258E1,3.0222023E-3,5.2374024E-2,3.3087928E-2,-1.2647479E-3,6.03218E-2,-1.388808E-2,-3.8759932E-2,-6.724793E-2],"split_indices":[6,6,5,0,5,5,9,0,0,0,0,0,0,0,0],"split_type":[0,0,0,0,0,0,0,0,0,0,0,0,0,0,0],"sum_hessian":[1.01280945E3,6.2027356E2,3.9253586E2,2.7121765E2,3.490559E2,9.5169426E1,2.9736646E2,1.6419006E1,2.5479865E2,1.3348044E2,2.1557547E2,1.0337893E1,8.4831535E1,9.638565E1,2.009808E2],"tree_param":{"num_deleted":"0","num_feature":"17","num_nodes":"15","size_leaf_vector":"1"}},{"base_weights":[1.2231359E-1,9.856266E-1,-1.9167513E0,1.5535384E0,5.813998E-1,-1.115734E0,-2.3635402E0,6.0046203E-2,3.8016938E-2,1.2243077E-2,1.0848967E-1,-6.520236E-2,-1.7672705E-2,-5.188905E-2,-7.8797705E-2],"categories":[],"categories_nodes":[],"categories_segments":[],"categories_sizes":[],"default_left":[0,0,0,0,0,0,0,0,0,0,0,0,0,0,0],"id":40,"left_children":[1,3,5,7,9,11,13,-1,-1,-1,-1,-1,-1,-1,-1],"loss_changes":[1.8204519E3,1.6099677E2,9.773535E1,2.6788269E1,2.1537321E2,5.6201508E1,1.4527344E1,0E0,0E0,0E0,0E0,0E0,0E0,0E0,0E0],"parents":[2147483647,0,0,1,1,2,2,3,3,4,4,5,5,6,6],"right_children":[2,4,6,8,10,12,14,-1,-1,-1,-1,-1,-1,-1,-1],"split_conditions":[6.931059E0,3.8237563E-1,2.088E1,3E-1,1.0392858E1,9.666667E0,1.2842972E1,6.0046203E-2,3.8016938E-2,1.2243077E-2,1.0848967E-1,-6.520236E-2,-1.7672705E-2,-5.188905E-2,-7.8797705E-2],"split_indices":[4,4,5,15,15,6,4,0,0,0,0,0,0,0,0],"split_type":[0,0,0,0,0,0,0,0,0,0,0,0,0,0,0],"sum_hessian":[1.0310527E3,7.257809E2,3.0527188E2,2.9736646E2,4.2841443E2,1.13412766E2,1.9185913E2,1.08547874E2,1.8881857E2,4.080427E2,2.037173E1,3.435829E1,7.9054474E1,6.293952E1,1.289196E2],"tree_param":{"num_deleted":"0","num_feature":"17","num_nodes":"15","size_leaf_vector":"1"}},{"base_weights":[8.801981E-2,9.122688E-1,-1.6089143E0,1.3065525E0,9.809802E-2,-6.556959E-1,-2.121305E0,6.6867694E-2,3.3812597E-2,-2.3166208E-2,2.5513787E-2,3.7721097E-2,-3.966531E-2,-2.345343E-2,-7.007138E-2],"categories":[],"categories_nodes":[],"categories_segments":[],"categories_sizes":[],"default_left":[0,0,0,0,0,0,0,0,0,0,0,0,0,0,0],"id":41,"left_children":[1,3,5,7,9,11,13,-1,-1,-1,-1,-1,-1,-1,-1],"loss_changes":[1.4439176E3,2.2041144E2,1.562956E2,6.560193E1,1.526949E2,1.5913731E2,5.2427002E1,0E0,0E0,0E0,0E0,0E0,0E0,0E0,0E0],"parents":[2147483647,0,0,1,1,2,2,3,3,4,4,5,5,6,6],"right_children":[2,4,6,8,10,12,14,-1,-1,-1,-1,-1,-1,-1,-1],"split_conditions":[1.4194819E1,3.8591897E0,2.088E1,2.4489796E-1,1E1,5E0,8.375E0,6.6867694E-2,3.3812597E-2,-2.3166208E-2,2.5513787E-2,3.7721097E-2,-3.966531E-2,-2.345343E-2,-7.007138E-2],"split_indices":[5,5,5,15,2,2,15,0,0,0,0,0,0,0,0],"split_type":[0,0,0,0,0,0,0,0,0,0,0,0,0,0,0],"sum_hessian":[1.0292284E3,6.941591E2,3.3506934E2,4.6520517E2,2.2895392E2,1.2010199E2,2.1496736E2,7.023686E1,3.9496832E2,1.0489921E2,1.2405471E2,2.9797455E1,9.0304535E1,3.22299E1,1.8273746E2],"tree_param":{"num_deleted":"0","num_feature":"17","num_nodes":"15","size_leaf_vector":"1"}},{"base_weights":[-0E0,1.0627267E0,-1.6850752E0,1.3354343E0,2.7973976E-2,6.556284E-3,-1.9294842E0,3.69367E-2,1.2112677E-1,-2.8497206E-2,5.70374E-2,3.519692E-2,-4.7399133E-2,-1.7600672E-2,-6.644341E-2],"categories":[],"categories_nodes":[],"categories_segments":[],"categories_sizes":[],"default_left":[0,0,0,0,0,0,0,0,0,0,0,0,0,0,0],"id":42,"left_children":[1,3,5,7,9,11,13,-1,-1,-1,-1,-1,-1,-1,-1],"loss_changes":[1.8118505E3,1.7236572E2,1.6560925E2,1.1741675E2,2.49237E2,9.6080215E1,1.2314087E2,0E0,0E0,0E0,0E0,0E0,0E0,0E0,0E0],"parents":[2147483647,0,0,1,1,2,2,3,3,4,4,5,5,6,6],"right_children":[2,4,6,8,10,12,14,-1,-1,-1,-1,-1,-1,-1,-1],"split_conditions":[4.433955E0,2.0299294E0,3E0,2.6666667E0,3.1666667E0,1.07428E1,6.799559E0,3.69367E-2,1.2112677E-1,-2.8497206E-2,5.70374E-2,3.519692E-2,-4.7399133E-2,-1.7600672E-2,-6.644341E-2],"split_indices":[4,4,2,6,14,4,4,0,0,0,0,0,0,0,0],"split_type":[0,0,0,0,0,0,0,0,0,0,0,0,0,0,0],"sum_hessian":[1.0079445E3,6.187533E2,3.8919125E2,4.877053E2,1.3104799E2,4.8344852E1,3.408464E2,4.7311063E2,1.4594672E1,8.604775E1,4.500024E1,2.8885288E1,1.9459562E1,6.2027355E1,2.7881906E2],"tree_param":{"num_deleted":"0","num_feature":"17","num_nodes":"15","size_leaf_vector":"1"}},{"base_weights":[-3.5053477E-2,1.0546839E0,-1.406108E0,7.897685E-1,1.8969191E0,-5.394808E-1,-2.039938E0,3.1013696E-2,-3.0049527E-2,4.2426433E-2,9.424421E-2,-2.3103803E-2,6.779509E-2,-5.24601E-2,-8.201487E-2],"categories":[],"categories_nodes":[],"categories_segments":[],"categories_sizes":[],"default_left":[0,0,0,0,0,0,0,0,0,0,0,0,0,0,0],"id":43,"left_children":[1,3,5,7,9,11,13,-1,-1,-1,-1,-1,-1,-1,-1],"loss_changes":[1.499442E3,1.1615814E2,2.3708112E2,1.9002286E2,6.0288147E1,1.24488815E2,3.3006226E1,0E0,0E0,0E0,0E0,0E0,0E0,0E0,0E0],"parents":[2147483647,0,0,1,1,2,2,3,3,4,4,5,5,6,6],"right_children":[2,4,6,8,10,12,14,-1,-1,-1,-1,-1,-1,-1,-1],"split_conditions":[2.8900514E0,1.8666667E0,9.760445E0,1.5196086E0,2.6666667E0,9.666667E0,1.751623E1,3.1013696E-2,-3.0049527E-2,4.2426433E-2,9.424421E-2,-2.3103803E-2,6.779509E-2,-5.24601E-2,-8.201487E-2],"split_indices":[4,14,4,4,6,6,4,0,0,0,0,0,0,0,0],"split_type":[0,0,0,0,0,0,0,0,0,0,0,0,0,0,0],"sum_hessian":[9.9912695E2,5.561178E2,4.4300912E2,4.2780634E2,1.283115E2,1.9003479E2,2.5297432E2,3.7824524E2,4.9561073E1,9.6689705E1,3.162179E1,1.7756851E2,1.2466283E1,1.851699E2,6.780441E1],"tree_param":{"num_deleted":"0","num_feature":"17","num_nodes":"15","size_leaf_vector":"1"}},{"base_weights":[7.9034396E-2,1.2327858E0,-1.336417E0,1.1241802E0,2.8762167E0,-5.708616E-1,-2.0647812E0,4.0579967E-2,1.8824491E-3,3.1196568E-2,1.1732436E-1,-2.475327E-2,8.6332954E-2,-5.1161285E-2,-7.4255355E-2],"categories":[],"categories_nodes":[],"categories_segments":[],"categories_sizes":[],"default_left":[0,0,0,0,0,0,0,0,0,0,0,0,0,0,0],"id":44,"left_children":[1,3,5,7,9,11,13,-1,-1,-1,-1,-1,-1,-1,-1],"loss_changes":[1.6196349E3,8.3194885E1,2.4034021E2,1.2254767E2,4.1798035E1,1.9434735E2,1.6499695E1,0E0,0E0,0E0,0E0,0E0,0E0,0E0,0E0],"parents":[2147483647,0,0,1,1,2,2,3,3,4,4,5,5,6,6],"right_children":[2,4,6,8,10,12,14,-1,-1,-1,-1,-1,-1,-1,-1],"split_conditions":[3.140723E0,3E0,1.07428E1,1.4825393E0,9E0,1.53E1,1.5427178E1,4.0579967E-2,1.8824491E-3,3.1196568E-2,1.1732436E-1,-2.475327E-2,8.6332954E-2,-5.1161285E-2,-7.4255355E-2],"split_indices":[4,6,4,4,2,14,4,0,0,0,0,0,0,0,0],"split_type":[0,0,0,0,0,0,0,0,0,0,0,0,0,0,0],"sum_hessian":[9.878769E2,5.451718E2,4.4270505E2,5.156784E2,2.94934E1,2.1892009E2,2.2378497E2,4.223333E2,9.334509E1,1.2770338E1,1.6723063E1,2.0584569E2,1.3074394E1,1.2739932E2,9.638565E1],"tree_param":{"num_deleted":"0","num_feature":"17","num_nodes":"15","size_leaf_vector":"1"}},{"base_weights":[5.598525E-2,8.461287E-1,-1.4317002E0,1.3629098E0,3.5408756E-1,-1.0790799E0,-7.160091E-2,2.006451E-2,5.595286E-2,9.801828E-2,6.3417964E-3,3.654408E-2,-3.5786275E-2],"categories":[],"categories_nodes":[],"categories_segments":[],"categories_sizes":[],"default_left":[0,0,0,0,0,0,0,0,0,0,0,0,0],"id":45,"left_children":[1,3,5,7,9,11,-1,-1,-1,-1,-1,-1,-1],"loss_changes":[1.1748446E3,1.619491E2,1.044978E2,1.0272058E2,1.3291705E2,7.030429E1,0E0,0E0,0E0,0E0,0E0,0E0,0E0],"parents":[2147483647,0,0,1,1,2,2,3,3,4,4,5,5],"right_children":[2,4,6,8,10,12,-1,-1,-1,-1,-1,-1,-1],"split_conditions":[1.2933977E1,1.8085237E0,2.8942436E1,1.3E1,1.5707865E1,9.375E-1,-7.160091E-2,2.006451E-2,5.595286E-2,9.801828E-2,6.3417964E-3,3.654408E-2,-3.5786275E-2],"split_indices":[5,5,5,0,7,15,0,0,0,0,0,0,0],"split_type":[0,0,0,0,0,0,0,0,0,0,0,0,0],"sum_hessian":[9.9639044E2,6.521994E2,3.44191E2,3.1439355E2,3.3780585E2,2.5601486E2,8.817615E1,1.3560883E2,1.7878473E2,1.3074394E1,3.2473145E2,1.0337893E1,2.4567699E2],"tree_param":{"num_deleted":"0","num_feature":"17","num_nodes":"13","size_leaf_vector":"1"}},{"base_weights":[4.626895E-2,7.480277E-1,-1.6253785E0,1.1776587E0,-3.723531E-2,-0E0,-1.8074936E0,5.4527465E-2,2.9597703E-2,-2.2902641E-2,2.7216543E-2,8.798735E-2,-4.7184426E-2,-6.091053E-3,-5.7776656E-2],"categories":[],"categories_nodes":[],"categories_segments":[],"categories_sizes":[],"default_left":[0,0,0,0,0,0,0,0,0,0,0,0,0,0,0],"id":46,"left_children":[1,3,5,7,9,11,13,-1,-1,-1,-1,-1,-1,-1,-1],"loss_changes":[1.1964933E3,2.4533795E2,9.1941895E1,4.7929993E1,1.7597145E2,1.5660019E2,4.6571777E1,0E0,0E0,0E0,0E0,0E0,0E0,0E0,0E0],"parents":[2147483647,0,0,1,1,2,2,3,3,4,4,5,5,6,6],"right_children":[2,4,6,8,10,12,14,-1,-1,-1,-1,-1,-1,-1,-1],"split_conditions":[6.799559E0,1.6E0,3E0,1.1283715E-2,3.2777777E0,1.07428E1,1.2933977E1,5.4527465E-2,2.9597703E-2,-2.2902641E-2,2.7216543E-2,8.798735E-2,-4.7184426E-2,-6.091053E-3,-5.7776656E-2],"split_indices":[4,4,2,4,14,4,5,0,0,0,0,0,0,0,0],"split_type":[0,0,0,0,0,0,0,0,0,0,0,0,0,0,0],"sum_hessian":[1.0173703E3,7.181795E2,2.9919077E2,4.6520517E2,2.5297432E2,2.94934E1,2.696974E2,1.00642426E2,3.6456274E2,1.4442644E2,1.08547874E2,1.0033837E1,1.9459562E1,2.0067675E1,2.496297E2],"tree_param":{"num_deleted":"0","num_feature":"17","num_nodes":"15","size_leaf_vector":"1"}},{"base_weights":[4.8366353E-2,8.5224605E-1,-1.6692566E0,1.2394625E0,1.5817578E-1,-1.1646284E0,-2.1837032E0,6.286774E-2,3.1511117E-2,-5.627951E-2,1.60718E-2,-4.2482972E-2,6.543514E-2,-3.0638427E-2,-6.8344705E-2],"categories":[],"categories_nodes":[],"categories_segments":[],"categories_sizes":[],"default_left":[0,0,0,0,0,0,0,0,0,0,0,0,0,0,0],"id":47,"left_children":[1,3,5,7,9,11,13,-1,-1,-1,-1,-1,-1,-1,-1],"loss_changes":[1.4339089E3,1.8734131E2,7.406384E1,6.262683E1,1.974846E2,1.5035876E2,6.260376E0,0E0,0E0,0E0,0E0,0E0,0E0,0E0,0E0],"parents":[2147483647,0,0,1,1,2,2,3,3,4,4,5,5,6,6],"right_children":[2,4,6,8,10,12,14,-1,-1,-1,-1,-1,-1,-1,-1],"split_conditions":[6.799559E0,1.5196086E0,1.2842972E1,6.25E-2,9.444444E-1,1.8E1,1.6642824E1,6.286774E-2,3.1511117E-2,-5.627951E-2,1.60718E-2,-4.2482972E-2,6.543514E-2,-3.0638427E-2,-6.8344705E-2],"split_indices":[4,4,4,15,15,14,5,0,0,0,0,0,0,0,0],"split_type":[0,0,0,0,0,0,0,0,0,0,0,0,0,0,0],"sum_hessian":[1.0356136E3,7.0692944E2,3.2868417E2,4.5091455E2,2.5601486E2,1.7118335E2,1.5750084E2,7.6013916E1,3.7490063E2,3.8006958E1,2.1800792E2,1.6084544E2,1.0337893E1,1.5202784E1,1.4229805E2],"tree_param":{"num_deleted":"0","num_feature":"17","num_nodes":"15","size_leaf_vector":"1"}},{"base_weights":[-5.9586033E-2,7.2945225E-1,-1.7623341E0,1.0818993E0,-1.0513027E-1,-1.5695384E0,-7.139031E-2,2.9603945E-2,1.1089882E-1,-1.559973E-2,7.0375E-2,-5.6075513E-2,-2.719117E-3],"categories":[],"categories_nodes":[],"categories_segments":[],"categories_sizes":[],"default_left":[0,0,0,0,0,0,0,0,0,0,0,0,0],"id":48,"left_children":[1,3,5,7,9,11,-1,-1,-1,-1,-1,-1,-1],"loss_changes":[1.3889012E3,2.094578E2,2.3628113E1,1.0699963E2,2.1167307E2,1.1007971E2,0E0,0E0,0E0,0E0,0E0,0E0,0E0],"parents":[2147483647,0,0,1,1,2,2,3,3,4,4,5,5],"right_children":[2,4,6,8,10,12,-1,-1,-1,-1,-1,-1,-1],"split_conditions":[6.799559E0,1.9692452E0,1.751623E1,2.6666667E0,9.571428E0,1.5428572E1,-7.139031E-2,2.9603945E-2,1.1089882E-1,-1.559973E-2,7.0375E-2,-5.6075513E-2,-2.719117E-3],"split_indices":[4,4,4,6,14,14,0,0,0,0,0,0,0],"split_type":[0,0,0,0,0,0,0,0,0,0,0,0,0],"sum_hessian":[1.0283163E3,7.0267267E2,3.2564362E2,4.9530667E2,2.0736597E2,2.5601486E2,6.9628746E1,4.8132013E2,1.3986561E1,1.7939285E2,2.7973122E1,2.113187E2,4.4696182E1],"tree_param":{"num_deleted":"0","num_feature":"17","num_nodes":"13","size_leaf_vector":"1"}},{"base_weights":[-3.87701E-2,8.995024E-1,-1.315976E0,6.4129084E-1,1.6390667E0,-7.438276E-1,-1.8470187E0,2.7975507E-2,-3.217222E-2,2.9653614E-2,8.517629E-2,-3.056504E-2,5.1729694E-2,-4.7570065E-2,-7.008444E-2],"categories":[],"categories_nodes":[],"categories_segments":[],"categories_sizes":[],"default_left":[0,0,0,0,0,0,0,0,0,0,0,0,0,0,0],"id":49,"left_children":[1,3,5,7,9,11,13,-1,-1,-1,-1,-1,-1,-1,-1],"loss_changes":[1.2076549E3,1.0403992E2,1.21921814E2,2.18805E2,1.0130319E2,1.4524359E2,1.2677734E1,0E0,0E0,0E0,0E0,0E0,0E0,0E0,0E0],"parents":[2147483647,0,0,1,1,2,2,3,3,4,4,5,5,6,6],"right_children":[2,4,6,8,10,12,14,-1,-1,-1,-1,-1,-1,-1,-1],"split_conditions":[4.0390167E0,1.8571428E0,1.1257612E1,1.864263E0,2.6666667E0,1.2E1,1.7962486E1,2.7975507E-2,-3.217222E-2,2.9653614E-2,8.517629E-2,-3.056504E-2,5.1729694E-2,-4.7570065E-2,-7.008444E-2],"split_indices":[4,15,4,4,6,6,4,0,0,0,0,0,0,0,0],"split_type":[0,0,0,0,0,0,0,0,0,0,0,0,0,0,0],"sum_hessian":[1.00307965E3,5.7770575E2,4.2537387E2,4.3297528E2,1.447305E2,2.0888625E2,2.1648764E2,3.7186008E2,6.111519E1,9.729781E1,4.7432686E1,1.8973074E2,1.9155508E1,1.4929134E2,6.7196304E1],"tree_param":{"num_deleted":"0","num_feature":"17","num_nodes":"15","size_leaf_vector":"1"}},{"base_weights":[4.646402E-2,7.808205E-1,-1.5729178E0,1.2404724E0,2.9706976E-1,4.12612E-1,-1.71736E0,3.1930488E-2,7.266452E-2,4.738044E-3,9.7523026E-2,-5.7523E-3,3.34377E-2,-3.5095736E-2,-5.9685014E-2],"categories":[],"categories_nodes":[],"categories_segments":[],"categories_sizes":[],"default_left":[0,0,0,0,0,0,0,0,0,0,0,0,0,0,0],"id":50,"left_children":[1,3,5,7,9,11,13,-1,-1,-1,-1,-1,-1,-1,-1],"loss_changes":[1.2040713E3,1.5145694E2,9.450488E1,6.1818848E1,1.3392755E2,1.1635206E1,3.304236E1,0E0,0E0,0E0,0E0,0E0,0E0,0E0,0E0],"parents":[2147483647,0,0,1,1,2,2,3,3,4,4,5,5,6,6],"right_children":[2,4,6,8,10,12,14,-1,-1,-1,-1,-1,-1,-1,-1],"split_conditions":[6.799559E0,7.558139E-1,1.2933977E1,6.666667E-1,7.3333335E0,1E0,2.088E1,3.1930488E-2,7.266452E-2,4.738044E-3,9.7523026E-2,-5.7523E-3,3.34377E-2,-3.5095736E-2,-5.9685014E-2],"split_indices":[4,4,5,6,6,13,5,0,0,0,0,0,0,0,0],"split_type":[0,0,0,0,0,0,0,0,0,0,0,0,0,0,0],"sum_hessian":[1.00976886E3,6.962875E2,3.1348138E2,3.5331268E2,3.429748E2,2.0067675E1,2.9341373E2,3.1226517E2,4.1047516E1,3.3020447E2,1.2770338E1,1.0033837E1,1.0033837E1,1.0337893E2,1.9003479E2],"tree_param":{"num_deleted":"0","num_feature":"17","num_nodes":"15","size_leaf_vector":"1"}},{"base_weights":[-5.0337505E-2,8.7826264E-1,-1.24955E0,1.2492548E0,3.9150575E-1,-8.1179106E-1,-1.7967861E0,1.7428268E-2,4.8924707E-2,5.7757297E-3,7.125623E-2,-3.1451903E-2,4.932418E-2,-3.3763047E-2,-5.8878407E-2],"categories":[],"categories_nodes":[],"categories_segments":[],"categories_sizes":[],"default_left":[0,0,0,0,0,0,0,0,0,0,0,0,0,0,0],"id":51,"left_children":[1,3,5,7,9,11,13,-1,-1,-1,-1,-1,-1,-1,-1],"loss_changes":[1.123876E3,9.822894E1,9.752399E1,7.498456E1,9.291315E1,1.4794473E2,1.0819031E1,0E0,0E0,0E0,0E0,0E0,0E0,0E0,0E0],"parents":[2147483647,0,0,1,1,2,2,3,3,4,4,5,5,6,6],"right_children":[2,4,6,8,10,12,14,-1,-1,-1,-1,-1,-1,-1,-1],"split_conditions":[3.8715868E0,1.8085237E0,1.1953453E1,1.1E1,1.2466307E1,1.2E1,1.9122623E1,1.7428268E-2,4.8924707E-2,5.7757297E-3,7.125623E-2,-3.1451903E-2,4.932418E-2,-3.3763047E-2,-5.8878407E-2],"split_indices":[4,5,4,0,5,6,5,0,0,0,0,0,0,0,0],"split_type":[0,0,0,0,0,0,0,0,0,0,0,0,0,0,0],"sum_hessian":[1.0045999E3,5.655435E2,4.390564E2,3.1682602E2,2.4871754E2,2.4871754E2,1.9033885E2,1.18885765E2,1.9794025E2,2.2895392E2,1.9763618E1,2.2864986E2,2.0067675E1,4.3175903E1,1.4716295E2],"tree_param":{"num_deleted":"0","num_feature":"17","num_nodes":"15","size_leaf_vector":"1"}},{"base_weights":[-6.566154E-2,8.291973E-1,-1.1637399E0,1.2911042E0,3.7269148E-1,-7.297476E-1,-1.6092197E0,3.3927824E-2,9.001245E-2,2.3877374E-3,4.56165E-2,-2.9785136E-2,1.2524599E-1,-4.9812336E-2,-1.3038641E-2],"categories":[],"categories_nodes":[],"categories_segments":[],"categories_sizes":[],"default_left":[0,0,0,0,0,0,0,0,0,0,0,0,0,0,0],"id":52,"left_children":[1,3,5,7,9,11,13,-1,-1,-1,-1,-1,-1,-1,-1],"loss_changes":[9.943984E2,1.1301187E2,8.0949036E1,5.9838776E1,9.236559E1,3.0700085E2,7.632141E0,0E0,0E0,0E0,0E0,0E0,0E0,0E0,0E0],"parents":[2147483647,0,0,1,1,2,2,3,3,4,4,5,5,6,6],"right_children":[2,4,6,8,10,12,14,-1,-1,-1,-1,-1,-1,-1,-1],"split_conditions":[3.140723E0,3.3333334E-1,1.07428E1,6.0875607E-1,2.6666667E0,1.2E1,2.0818182E1,3.3927824E-2,9.001245E-2,2.3877374E-3,4.56165E-2,-2.9785136E-2,1.2524599E-1,-4.9812336E-2,-1.3038641E-2],"split_indices":[4,6,4,4,6,6,14,0,0,0,0,0,0,0,0],"split_type":[0,0,0,0,0,0,0,0,0,0,0,0,0,0,0],"sum_hessian":[1.0073364E3,5.5429346E2,4.5304294E2,2.715217E2,2.8277176E2,2.3442693E2,2.1861603E2,2.5236621E2,1.9155508E1,2.2834581E2,5.4425964E1,2.2439308E2,1.0033837E1,2.070619E2,1.1554115E1],"tree_param":{"num_deleted":"0","num_feature":"17","num_nodes":"15","size_leaf_vector":"1"}},{"base_weights":[-1.9147221E-2,8.398104E-1,-1.0659002E0,7.4401134E-1,2.9326713E0,-5.8368134E-1,-1.5598651E0,2.6049681E-2,-2.0010991E-2,3.7211254E-2,1.1962418E-1,-2.3562212E-2,8.596398E-2,-3.9806344E-2,-6.1396115E-2],"categories":[],"categories_nodes":[],"categories_segments":[],"categories_sizes":[],"default_left":[0,0,0,0,0,0,0,0,0,0,0,0,0,0,0],"id":53,"left_children":[1,3,5,7,9,11,13,-1,-1,-1,-1,-1,-1,-1,-1],"loss_changes":[9.097535E2,9.945053E1,1.0271735E2,9.5193146E1,2.0129486E1,1.6484256E2,1.3044312E1,0E0,0E0,0E0,0E0,0E0,0E0,0E0,0E0],"parents":[2147483647,0,0,1,1,2,2,3,3,4,4,5,5,6,6],"right_children":[2,4,6,8,10,12,14,-1,-1,-1,-1,-1,-1,-1,-1],"split_conditions":[2.8900514E0,2.6584306E0,1.07428E1,1.9692452E0,3.125E0,1.0449157E1,1.751623E1,2.6049681E-2,-2.0010991E-2,3.7211254E-2,1.1962418E-1,-2.3562212E-2,8.596398E-2,-3.9806344E-2,-6.1396115E-2],"split_indices":[4,4,4,4,15,4,4,0,0,0,0,0,0,0,0],"split_type":[0,0,0,0,0,0,0,0,0,0,0,0,0,0,0],"sum_hessian":[1.0073364E3,5.524692E2,4.5486728E2,5.317934E2,2.0675785E1,2.3442693E2,2.2044035E2,4.9074585E2,4.1047516E1,1.0337893E1,1.0337893E1,2.2348091E2,1.0946004E1,1.5689273E2,6.3547634E1],"tree_param":{"num_deleted":"0","num_feature":"17","num_nodes":"15","size_leaf_vector":"1"}},{"base_weights":[1.3058583E-2,8.7456703E-1,-1.0165685E0,8.038612E-1,9.0381205E-2,-5.360842E-1,-1.6270847E0,3.729923E-2,1.1344157E-2,-2.12814E-2,8.6696364E-2,-5.07691E-2,-1.996101E-2],"categories":[],"categories_nodes":[],"categories_segments":[],"categories_sizes":[],"default_left":[0,0,0,0,0,0,0,0,0,0,0,0,0],"id":54,"left_children":[1,3,5,7,-1,9,11,-1,-1,-1,-1,-1,-1],"loss_changes":[9.102937E2,7.217474E1,1.3080243E2,9.789859E1,0E0,1.5761731E2,5.744873E0,0E0,0E0,0E0,0E0,0E0,0E0],"parents":[2147483647,0,0,1,1,2,2,3,3,5,5,6,6],"right_children":[2,4,6,8,-1,10,12,-1,-1,-1,-1,-1,-1],"split_conditions":[3.140723E0,8.461538E0,1.1257612E1,3.8237563E-1,9.0381205E-2,1.65E1,2.3E1,3.729923E-2,1.1344157E-2,-2.12814E-2,8.6696364E-2,-5.07691E-2,-1.996101E-2],"split_indices":[4,14,4,4,0,14,2,0,0,0,0,0,0],"split_type":[0,0,0,0,0,0,0,0,0,0,0,0,0],"sum_hessian":[1.02253925E3,5.5794214E2,4.6459708E2,5.4365155E2,1.4290617E1,2.6392032E2,2.0067674E2,2.633122E2,2.8033932E2,2.5327837E2,1.0641949E1,1.845618E2,1.611495E1],"tree_param":{"num_deleted":"0","num_feature":"17","num_nodes":"13","size_leaf_vector":"1"}},{"base_weights":[7.442592E-3,6.270985E-1,-1.3520118E0,5.268317E-1,2.4339974E0,-1.8723865E-1,-1.4729652E0,2.3698954E-2,-1.7539425E-2,1.1130007E-1,8.746242E-3,-4.1179787E-2,4.9482845E-2,-7.037773E-2,-3.9211106E-2],"categories":[],"categories_nodes":[],"categories_segments":[],"categories_sizes":[],"default_left":[0,0,0,0,0,0,0,0,0,0,0,0,0,0,0],"id":55,"left_children":[1,3,5,7,9,11,13,-1,-1,-1,-1,-1,-1,-1,-1],"loss_changes":[8.6151855E2,1.19180725E2,4.117383E1,1.976462E2,8.673576E1,7.783881E1,2.8250793E1,0E0,0E0,0E0,0E0,0E0,0E0,0E0,0E0],"parents":[2147483647,0,0,1,1,2,2,3,3,4,4,5,5,6,6],"right_children":[2,4,6,8,10,12,14,-1,-1,-1,-1,-1,-1,-1,-1],"split_conditions":[6.799559E0,9.571428E0,3E0,2.8900514E0,5.9664476E-1,1.923077E-1,8.666667E0,2.3698954E-2,-1.7539425E-2,1.1130007E-1,8.746242E-3,-4.1179787E-2,4.9482845E-2,-7.037773E-2,-3.9211106E-2],"split_indices":[4,14,2,4,12,16,6,0,0,0,0,0,0,0,0],"split_type":[0,0,0,0,0,0,0,0,0,0,0,0,0,0,0],"sum_hessian":[1.0204108E3,7.0267267E2,3.177382E2,6.692265E2,3.3446125E1,3.1925846E1,2.8581232E2,5.430434E2,1.26183105E2,1.9459562E1,1.3986561E1,2.037173E1,1.1554115E1,3.9527237E1,2.462851E2],"tree_param":{"num_deleted":"0","num_feature":"17","num_nodes":"15","size_leaf_vector":"1"}},{"base_weights":[-5.0488682E-3,5.3665894E-1,-1.2256073E0,4.3989655E-1,2.2846284E0,3.328438E-2,-1.3651944E0,2.3265032E-2,-7.925304E-3,1.074503E-1,7.4632154E-3,7.146293E-2,-3.6740124E-2,-6.036922E-2,-3.5930336E-2],"categories":[],"categories_nodes":[],"categories_segments":[],"categories_sizes":[],"default_left":[0,0,0,0,0,0,0,0,0,0,0,0,0,0,0],"id":56,"left_children":[1,3,5,7,9,11,13,-1,-1,-1,-1,-1,-1,-1,-1],"loss_changes":[6.9256866E2,1.1481331E2,5.942163E1,1.6413182E2,8.6564835E1,1.04796616E2,2.0387756E1,0E0,0E0,0E0,0E0,0E0,0E0,0E0,0E0],"parents":[2147483647,0,0,1,1,2,2,3,3,4,4,5,5,6,6],"right_children":[2,4,6,8,10,12,14,-1,-1,-1,-1,-1,-1,-1,-1],"split_conditions":[6.799559E0,9.571428E0,3E0,1.5196086E0,5.9664476E-1,1.07428E1,9.333333E0,2.3265032E-2,-7.925304E-3,1.074503E-1,7.4632154E-3,7.146293E-2,-3.6740124E-2,-6.036922E-2,-3.5930336E-2],"split_indices":[4,14,2,4,12,4,6,0,0,0,0,0,0,0,0],"split_type":[0,0,0,0,0,0,0,0,0,0,0,0,0,0,0],"sum_hessian":[1.0413906E3,7.20916E2,3.2047467E2,6.865577E2,3.435829E1,3.0709623E1,2.8976505E2,4.6672546E2,2.1983224E2,1.9459562E1,1.4898727E1,1.0641949E1,2.0067675E1,5.260163E1,2.3716342E2],"tree_param":{"num_deleted":"0","num_feature":"17","num_nodes":"15","size_leaf_vector":"1"}},{"base_weights":[-0E0,5.530759E-1,-1.1526417E0,4.858541E-1,1.0269206E-1,-6.820121E-1,-1.6457541E0,2.1926995E-2,-1.5362389E-2,-5.403309E-2,1.7542334E-3,-2.0856004E-2,-5.3307097E-2],"categories":[],"categories_nodes":[],"categories_segments":[],"categories_sizes":[],"default_left":[0,0,0,0,0,0,0,0,0,0,0,0,0],"id":57,"left_children":[1,3,5,7,-1,9,11,-1,-1,-1,-1,-1,-1],"loss_changes":[6.263989E2,1.1676924E2,6.709064E1,1.6034592E2,0E0,1.434286E2,1.155954E1,0E0,0E0,0E0,0E0,0E0,0E0],"parents":[2147483647,0,0,1,1,2,2,3,3,5,5,6,6],"right_children":[2,4,6,8,-1,10,12,-1,-1,-1,-1,-1,-1],"split_conditions":[6.799559E0,7.3333335E0,1.2842972E1,2.855808E0,1.0269206E-1,9.666667E0,1.877648E1,2.1926995E-2,-1.5362389E-2,-5.403309E-2,1.7542334E-3,-2.0856004E-2,-5.3307097E-2],"split_indices":[4,6,4,4,0,6,5,0,0,0,0,0,0],"split_type":[0,0,0,0,0,0,0,0,0,0,0,0,0],"sum_hessian":[9.77843E2,6.61017E2,3.1682602E2,6.488548E2,1.2162227E1,1.6662251E2,1.502035E2,5.2297577E2,1.2587904E2,6.6284134E1,1.0033837E2,2.1587952E1,1.2861555E2],"tree_param":{"num_deleted":"0","num_feature":"17","num_nodes":"13","size_leaf_vector":"1"}},{"base_weights":[1.5164946E-2,8.2680506E-1,-9.091853E-1,1.0050349E0,-1.9609332E-2,6.446907E-2,-1.0329574E0,1.4601053E-2,4.5291662E-2,-1.9417575E-2,1.8831916E-2,-6.423002E-2,-2.5012974E-2],"categories":[],"categories_nodes":[],"categories_segments":[],"categories_sizes":[],"default_left":[0,0,0,0,0,0,0,0,0,0,0,0,0],"id":58,"left_children":[1,3,5,7,9,-1,11,-1,-1,-1,-1,-1,-1],"loss_changes":[7.60636E2,8.363727E1,1.8123807E2,1.1198422E2,3.9096058E1,0E0,9.124963E1,0E0,0E0,0E0,0E0,0E0,0E0],"parents":[2147483647,0,0,1,1,2,2,3,3,4,4,6,6],"right_children":[2,4,6,8,10,-1,12,-1,-1,-1,-1,-1,-1],"split_conditions":[2.8900514E0,2.7E1,3.6684341E0,1.3E1,2.024E3,6.446907E-2,4.9772725E0,1.4601053E-2,4.5291662E-2,-1.9417575E-2,1.8831916E-2,-6.423002E-2,-2.5012974E-2],"split_indices":[4,0,5,0,3,0,15,0,0,0,0,0,0],"split_type":[0,0,0,0,0,0,0,0,0,0,0,0,0],"sum_hessian":[1.01007294E3,5.390907E2,4.7098224E2,4.4696182E2,9.212887E1,1.6419006E1,4.5456323E2,2.2439308E2,2.2256876E2,4.8344852E1,4.3784016E1,6.4763855E1,3.8979938E2],"tree_param":{"num_deleted":"0","num_feature":"17","num_nodes":"13","size_leaf_vector":"1"}},{"base_weights":[6.7597575E-2,6.493087E-1,-1.2138495E0,1.2171113E0,2.9553506E-1,-6.42744E-1,-1.4550269E0,3.2291528E-2,7.885431E-2,3.6122112E-3,5.5748977E-2,-3.45308E-2,9.569056E-2,-3.6342673E-2,-5.4663576E-2],"categories":[],"categories_nodes":[],"categories_segments":[],"categories_sizes":[],"default_left":[0,0,0,0,0,0,0,0,0,0,0,0,0,0,0],"id":59,"left_children":[1,3,5,7,9,11,13,-1,-1,-1,-1,-1,-1,-1,-1],"loss_changes":[7.95223E2,1.4403531E2,3.973297E1,4.246579E1,1.209651E2,2.073546E2,1.0062592E1,0E0,0E0,0E0,0E0,0E0,0E0,0E0,0E0],"parents":[2147483647,0,0,1,1,2,2,3,3,4,4,5,5,6,6],"right_children":[2,4,6,8,10,12,14,-1,-1,-1,-1,-1,-1,-1,-1],"split_conditions":[6.799559E0,3.3333334E-1,1.07428E1,6.0875607E-1,6E0,1.1666667E1,1.6622509E1,3.2291528E-2,7.885431E-2,3.6122112E-3,5.5748977E-2,-3.45308E-2,9.569056E-2,-3.6342673E-2,-5.4663576E-2],"split_indices":[4,6,4,4,6,6,4,0,0,0,0,0,0,0,0],"split_type":[0,0,0,0,0,0,0,0,0,0,0,0,0,0,0],"sum_hessian":[1.0641948E3,7.3368634E2,3.305085E2,2.776028E2,4.560835E2,1.0277081E2,2.277377E2,2.5692703E2,2.0675785E1,4.1321167E2,4.287185E1,9.243292E1,1.0337893E1,1.4533861E2,8.2399086E1],"tree_param":{"num_deleted":"0","num_feature":"17","num_nodes":"15","size_leaf_vector":"1"}},{"base_weights":[1.15220785E-1,7.182825E-1,-8.426429E-1,1.1855623E0,4.1427672E-1,-3.944314E-1,-1.4005721E0,2.5004359E-2,6.886617E-2,8.11139E-3,5.385478E-2,-2.0853037E-2,7.012041E-2,-3.4817923E-2,-5.367252E-2],"categories":[],"categories_nodes":[],"categories_segments":[],"categories_sizes":[],"default_left":[0,0,0,0,0,0,0,0,0,0,0,0,0,0,0],"id":60,"left_children":[1,3,5,7,9,11,13,-1,-1,-1,-1,-1,-1,-1,-1],"loss_changes":[5.8593805E2,8.443149E1,9.305441E1,8.4569855E1,7.1119354E1,1.8192001E2,5.9241333E0,0E0,0E0,0E0,0E0,0E0,0E0,0E0,0E0],"parents":[2147483647,0,0,1,1,2,2,3,3,4,4,5,5,6,6],"right_children":[2,4,6,8,10,12,14,-1,-1,-1,-1,-1,-1,-1,-1],"split_conditions":[4.433955E0,1.1492434E0,1.2E1,5E-1,1.1766513E1,1.2E1,1.751623E1,2.5004359E-2,6.886617E-2,8.11139E-3,5.385478E-2,-2.0853037E-2,7.012041E-2,-3.4817923E-2,-5.367252E-2],"split_indices":[4,5,4,6,5,6,4,0,0,0,0,0,0,0,0],"split_type":[0,0,0,0,0,0,0,0,0,0,0,0,0,0,0],"sum_hessian":[1.010681E3,6.217938E2,3.888872E2,2.4020398E2,3.8158987E2,2.195282E2,1.6935901E2,1.8638612E2,5.3817852E1,3.490559E2,3.253396E1,1.9976457E2,1.9763618E1,1.1280466E2,5.6554356E1],"tree_param":{"num_deleted":"0","num_feature":"17","num_nodes":"15","size_leaf_vector":"1"}},{"base_weights":[-2.4820048E-2,5.106131E-1,-9.9560785E-1,9.4500256E-1,1.9766082E-1,5.3233397E-1,-1.1643975E0,3.3703465E-2,-7.126377E-3,1.4916257E-3,5.665905E-2,6.7571275E-2,-2.3921987E-2,-7.567385E-2,-3.0359011E-2],"categories":[],"categories_nodes":[],"categories_segments":[],"categories_sizes":[],"default_left":[0,0,0,0,0,0,0,0,0,0,0,0,0,0,0],"id":61,"left_children":[1,3,5,7,9,11,13,-1,-1,-1,-1,-1,-1,-1,-1],"loss_changes":[5.2615753E2,8.5696365E1,9.547232E1,5.9062057E1,9.174322E1,8.896518E1,5.539966E1,0E0,0E0,0E0,0E0,0E0,0E0,0E0,0E0],"parents":[2147483647,0,0,1,1,2,2,3,3,4,4,5,5,6,6],"right_children":[2,4,6,8,10,12,14,-1,-1,-1,-1,-1,-1,-1,-1],"split_conditions":[1.2933977E1,3.3333334E-1,4.6666665E0,2.912E1,6.1923075E0,7E0,6.5652175E0,3.3703465E-2,-7.126377E-3,1.4916257E-3,5.665905E-2,6.7571275E-2,-2.3921987E-2,-7.567385E-2,-3.0359011E-2],"split_indices":[5,6,6,7,15,2,15,0,0,0,0,0,0,0,0],"split_type":[0,0,0,0,0,0,0,0,0,0,0,0,0,0,0],"sum_hessian":[1.00642426E3,6.479426E2,3.5848163E2,2.6696088E2,3.8098175E2,3.4054234E1,3.244274E2,2.3351476E2,3.3446125E1,3.5331268E2,2.7669065E1,1.4898727E1,1.9155508E1,2.8277178E1,2.961502E2],"tree_param":{"num_deleted":"0","num_feature":"17","num_nodes":"15","size_leaf_vector":"1"}},{"base_weights":[1.5994556E-2,6.786457E-1,-5.3731096E-1,8.544234E-2,5.6758827E-1,-1.1598157E-1,-9.9799025E-1,4.847442E-2,1.1737081E-2,-7.5419764E-3,6.669328E-2,5.3321462E-2,-3.4153804E-2],"categories":[],"categories_nodes":[],"categories_segments":[],"categories_sizes":[],"default_left":[0,0,0,0,0,0,0,0,0,0,0,0,0],"id":62,"left_children":[1,3,5,-1,7,9,11,-1,-1,-1,-1,-1,-1],"loss_changes":[3.7175256E2,1.0140123E2,1.0439453E2,0E0,7.670355E1,8.968848E1,1.0430615E2,0E0,0E0,0E0,0E0,0E0,0E0],"parents":[2147483647,0,0,1,1,2,2,4,4,5,5,6,6],"right_children":[2,4,6,-1,8,10,12,-1,-1,-1,-1,-1,-1],"split_conditions":[3.8591897E0,-2.14E0,9E0,8.544234E-2,6.25E-2,8.333333E0,1.2933977E1,4.847442E-2,1.1737081E-2,-7.5419764E-3,6.669328E-2,5.3321462E-2,-3.4153804E-2],"split_indices":[5,16,6,0,15,6,5,0,0,0,0,0,0],"split_type":[0,0,0,0,0,0,0,0,0,0,0,0,0],"sum_hessian":[1.00916077E3,4.6064435E2,5.485164E2,1.9155508E1,4.4148883E2,2.9006912E2,2.5844733E2,5.959491E1,3.8189392E2,2.7669067E2,1.3378449E1,1.0641949E1,2.4780537E2],"tree_param":{"num_deleted":"0","num_feature":"17","num_nodes":"13","size_leaf_vector":"1"}},{"base_weights":[4.8494104E-2,6.0430044E-1,-8.1507903E-1,3.8542235E-1,1.1563369E0,-2.3488483E0,-6.6234195E-1,1.9280355E-2,-2.4669642E-2,4.647017E-2,-2.0495837E-3,-3.1886842E-2,-8.2945E-2,7.018917E-3,-3.16138E-2],"categories":[],"categories_nodes":[],"categories_segments":[],"categories_sizes":[],"default_left":[0,0,0,0,0,0,0,0,0,0,0,0,0,0,0],"id":63,"left_children":[1,3,5,7,9,11,13,-1,-1,-1,-1,-1,-1,-1,-1],"loss_changes":[4.829811E2,7.022171E1,8.293533E1,1.3905632E2,8.5284424E1,4.452606E0,1.289315E2,0E0,0E0,0E0,0E0,0E0,0E0,0E0,0E0],"parents":[2147483647,0,0,1,1,2,2,3,3,4,4,5,5,6,6],"right_children":[2,4,6,8,10,12,14,-1,-1,-1,-1,-1,-1,-1,-1],"split_conditions":[4.433955E0,1.8666667E0,3.9473684E0,1.5196086E0,3.4586363E0,6.8305817E0,9.760445E0,1.9280355E-2,-2.4669642E-2,4.647017E-2,-2.0495837E-3,-3.1886842E-2,-8.2945E-2,7.018917E-3,-3.16138E-2],"split_indices":[4,14,15,4,12,5,4,0,0,0,0,0,0,0,0],"split_type":[0,0,0,0,0,0,0,0,0,0,0,0,0,0,0],"sum_hessian":[1.00307965E3,6.120641E2,3.910156E2,4.4331317E2,1.687509E2,3.162179E1,3.593938E2,3.676033E2,7.570986E1,1.2861555E2,4.013535E1,1.0641949E1,2.0979841E1,1.07939766E2,2.5145404E2],"tree_param":{"num_deleted":"0","num_feature":"17","num_nodes":"15","size_leaf_vector":"1"}},{"base_weights":[5.3174973E-2,4.647556E-1,-1.1844114E0,6.706848E-1,-9.171915E-2,-1.2488499E0,1.2168479E-3,1.7389327E-2,8.039627E-2,-2.6883598E-2,3.302585E-2,-3.921573E-2,-0E0],"categories":[],"categories_nodes":[],"categories_segments":[],"categories_sizes":[],"default_left":[0,0,0,0,0,0,0,0,0,0,0,0,0],"id":64,"left_children":[1,3,5,7,9,11,-1,-1,-1,-1,-1,-1,-1],"loss_changes":[5.139387E2,8.84088E1,2.2356354E1,9.240834E1,1.9774405E2,1.766159E1,0E0,0E0,0E0,0E0,0E0,0E0,0E0],"parents":[2147483647,0,0,1,1,2,2,3,3,4,4,5,5],"right_children":[2,4,6,8,10,12,-1,-1,-1,-1,-1,-1,-1],"split_conditions":[9.760445E0,2.8900514E0,6.785714E0,2.6584306E0,6.1923075E0,4.0110156E-1,1.2168479E-3,1.7389327E-2,8.039627E-2,-2.6883598E-2,3.302585E-2,-3.921573E-2,-0E0],"split_indices":[4,4,16,4,15,11,0,0,0,0,0,0,0],"split_type":[0,0,0,0,0,0,0,0,0,0,0,0,0],"sum_hessian":[1.0076405E3,7.583148E2,2.4932565E2,5.558138E2,2.0250108E2,2.3837964E2,1.0946004E1,5.35138E2,2.0675785E1,1.2223038E2,8.02707E1,2.277377E2,1.0641949E1],"tree_param":{"num_deleted":"0","num_feature":"17","num_nodes":"13","size_leaf_vector":"1"}},{"base_weights":[-2.6989434E-2,5.5481267E-1,-9.681251E-1,4.5801935E-1,2.0132282E0,-8.259507E-2,-1.1393111E0,2.50442E-2,-4.2010867E-3,1.9780219E-2,1.19640216E-1,1.3887052E-2,-5.0736953E-2,-6.420998E-2,-3.0926846E-2],"categories":[],"categories_nodes":[],"categories_segments":[],"categories_sizes":[],"default_left":[0,0,0,0,0,0,0,0,0,0,0,0,0,0,0],"id":65,"left_children":[1,3,5,7,9,11,13,-1,-1,-1,-1,-1,-1,-1,-1],"loss_changes":[5.5922943E2,8.200075E1,5.662271E1,1.3540582E2,8.509375E1,6.3141735E1,2.4571808E1,0E0,0E0,0E0,0E0,0E0,0E0,0E0,0E0],"parents":[2147483647,0,0,1,1,2,2,3,3,4,4,5,5,6,6],"right_children":[2,4,6,8,10,12,14,-1,-1,-1,-1,-1,-1,-1,-1],"split_conditions":[4.433955E0,4E0,4E0,7.558139E-1,1.3E1,1.5675056E1,3.9473684E0,2.50442E-2,-4.2010867E-3,1.9780219E-2,1.19640216E-1,1.3887052E-2,-5.0736953E-2,-6.420998E-2,-3.0926846E-2],"split_indices":[4,6,2,4,2,4,15,0,0,0,0,0,0,0,0],"split_type":[0,0,0,0,0,0,0,0,0,0,0,0,0,0,0],"sum_hessian":[1.01585E3,6.2696277E2,3.888872E2,5.916923E2,3.527046E1,6.537197E1,3.2351523E2,3.6456274E2,2.271296E2,2.310823E1,1.2162227E1,4.895296E1,1.6419006E1,2.6148788E1,2.9736646E2],"tree_param":{"num_deleted":"0","num_feature":"17","num_nodes":"15","size_leaf_vector":"1"}},{"base_weights":[5.730073E-3,4.0861312E-1,-9.203121E-1,3.2414886E-1,2.568591E0,-5.861413E-1,-1.648696E0,2.2278218E-2,-3.6922044E-3,1.4049236E-1,1.224202E-2,-2.9415816E-2,1.6740287E-2,-8.484602E-2,-4.219915E-2],"categories":[],"categories_nodes":[],"categories_segments":[],"categories_sizes":[],"default_left":[0,0,0,0,0,0,0,0,0,0,0,0,0,0,0],"id":66,"left_children":[1,3,5,7,9,11,13,-1,-1,-1,-1,-1,-1,-1,-1],"loss_changes":[3.8083627E2,1.22941E2,6.875903E1,1.3073651E2,1.0347824E2,9.970581E1,1.0448349E1,0E0,0E0,0E0,0E0,0E0,0E0,0E0,0E0],"parents":[2147483647,0,0,1,1,2,2,3,3,4,4,5,5,6,6],"right_children":[2,4,6,8,10,12,14,-1,-1,-1,-1,-1,-1,-1,-1],"split_conditions":[6.799559E0,1.0392858E1,2.8942436E1,7.259821E-1,1.6261312E1,1.3777778E1,1.05995455E1,2.2278218E-2,-3.6922044E-3,1.4049236E-1,1.224202E-2,-2.9415816E-2,1.6740287E-2,-8.484602E-2,-4.219915E-2],"split_indices":[4,15,5,4,5,14,4,0,0,0,0,0,0,0,0],"split_type":[0,0,0,0,0,0,0,0,0,0,0,0,0,0,0],"sum_hessian":[1.01949866E3,7.127065E2,3.0679218E2,6.889902E2,2.3716343E1,2.146633E2,9.212887E1,3.5756946E2,3.314207E2,1.0337893E1,1.3378449E1,1.611495E2,5.3513798E1,1.0641949E1,8.148692E1],"tree_param":{"num_deleted":"0","num_feature":"17","num_nodes":"15","size_leaf_vector":"1"}},{"base_weights":[-9.366259E-2,3.5976514E-1,-8.7904805E-1,8.240792E-1,1.2425412E-1,2.904887E-1,-1.0743409E0,1.1763654E-2,6.4155065E-2,2.5002087E-2,-5.279368E-3,-2.8687544E-2,4.0010735E-2,-7.200358E-2,-2.9407758E-2],"categories":[],"categories_nodes":[],"categories_segments":[],"categories_sizes":[],"default_left":[0,0,0,0,0,0,0,0,0,0,0,0,0,0,0],"id":67,"left_children":[1,3,5,7,9,11,13,-1,-1,-1,-1,-1,-1,-1,-1],"loss_changes":[3.555892E2,6.677605E1,8.5776764E1,1.1178908E2,9.1694E1,7.15524E1,2.7884491E1,0E0,0E0,0E0,0E0,0E0,0E0,0E0,0E0],"parents":[2147483647,0,0,1,1,2,2,3,3,4,4,5,5,6,6],"right_children":[2,4,6,8,10,12,14,-1,-1,-1,-1,-1,-1,-1,-1],"split_conditions":[5.3333335E0,1.0293555E0,1.326411E1,5E-1,3.3333334E-1,1.1E1,5.5E0,1.1763654E-2,6.4155065E-2,2.5002087E-2,-5.279368E-3,-2.8687544E-2,4.0010735E-2,-7.200358E-2,-2.9407758E-2],"split_indices":[6,5,5,6,6,0,15,0,0,0,0,0,0,0,0],"split_type":[0,0,0,0,0,0,0,0,0,0,0,0,0,0,0],"sum_hessian":[9.918296E2,6.2787494E2,3.6395465E2,2.0675786E2,4.211171E2,5.047324E1,3.1348138E2,1.5871706E2,4.8040794E1,1.26183105E2,2.94934E2,2.2196064E1,2.8277178E1,1.611495E1,2.9736646E2],"tree_param":{"num_deleted":"0","num_feature":"17","num_nodes":"15","size_leaf_vector":"1"}},{"base_weights":[2.2012778E-2,5.977706E-1,-8.087356E-1,2.0530734E0,4.8921752E-1,4.0337514E-2,-8.817969E-1,2.82312E-2,9.607777E-2,1.2004571E-2,5.9512448E-2,-1.979088E-2,-4.5985222E-2],"categories":[],"categories_nodes":[],"categories_segments":[],"categories_sizes":[],"default_left":[0,0,0,0,0,0,0,0,0,0,0,0,0],"id":68,"left_children":[1,3,5,7,9,-1,11,-1,-1,-1,-1,-1,-1],"loss_changes":[4.7677603E2,8.6216354E1,6.547705E1,3.5660202E1,6.732887E1,0E0,5.081723E1,0E0,0E0,0E0,0E0,0E0,0E0],"parents":[2147483647,0,0,1,1,2,2,3,3,4,4,6,6],"right_children":[2,4,6,8,10,-1,12,-1,-1,-1,-1,-1,-1],"split_conditions":[3.8715868E0,1.7344517E-1,3.6684341E0,1.3928572E0,1.1934666E1,4.0337514E-2,2.8942436E1,2.82312E-2,9.607777E-2,1.2004571E-2,5.9512448E-2,-1.979088E-2,-4.5985222E-2],"split_indices":[4,11,5,15,5,0,5,0,0,0,0,0,0],"split_type":[0,0,0,0,0,0,0,0,0,0,0,0,0],"sum_hessian":[9.9365393E2,5.886518E2,4.0500217E2,3.709479E1,5.51557E2,1.125006E1,3.937521E2,2.1587952E1,1.5506839E1,5.2419196E2,2.7365011E1,2.9888672E2,9.486537E1],"tree_param":{"num_deleted":"0","num_feature":"17","num_nodes":"13","size_leaf_vector":"1"}},{"base_weights":[6.7515045E-2,5.6688595E-1,-7.326243E-1,3.5037667E-1,1.3225073E0,-6.895457E-2,-6.294868E-1,1.8128227E-2,-3.1937752E-2,-1.0416065E-2,4.7505684E-2,3.7070771E-3,-2.818372E-2],"categories":[],"categories_nodes":[],"categories_segments":[],"categories_sizes":[],"default_left":[0,0,0,0,0,0,0,0,0,0,0,0,0],"id":69,"left_children":[1,3,5,7,9,-1,11,-1,-1,-1,-1,-1,-1],"loss_changes":[4.1047797E2,9.952055E1,5.482019E1,1.7924539E2,6.3942505E1,0E0,8.899034E1,0E0,0E0,0E0,0E0,0E0,0E0],"parents":[2147483647,0,0,1,1,2,2,3,3,4,4,6,6],"right_children":[2,4,6,8,10,-1,12,-1,-1,-1,-1,-1,-1],"split_conditions":[4.872613E0,2.2708333E0,3.6956522E0,1.864263E0,3.2285713E1,-6.895457E-2,9.760445E0,1.8128227E-2,-3.1937752E-2,-1.0416065E-2,4.7505684E-2,3.7070771E-3,-2.818372E-2],"split_indices":[4,15,15,4,9,0,4,0,0,0,0,0,0],"split_type":[0,0,0,0,0,0,0,0,0,0,0,0,0],"sum_hessian":[1.0240594E3,6.324358E2,3.916237E2,4.959148E2,1.36521E2,2.037173E1,3.7125198E2,4.226374E2,7.327742E1,1.7331173E1,1.1918982E2,1.0672354E2,2.6452844E2],"tree_param":{"num_deleted":"0","num_feature":"17","num_nodes":"13","size_leaf_vector":"1"}},{"base_weights":[-2.1414742E-2,5.799069E-1,-7.540796E-1,4.881378E-1,2.4173157E0,3.9338745E-2,-8.1142795E-1,1.7958155E-2,-2.4284707E-2,1.02021754E-1,2.395998E-2,-4.7686722E-2,-1.7382458E-2],"categories":[],"categories_nodes":[],"categories_segments":[],"categories_sizes":[],"default_left":[0,0,0,0,0,0,0,0,0,0,0,0,0],"id":70,"left_children":[1,3,5,7,9,-1,11,-1,-1,-1,-1,-1,-1],"loss_changes":[4.4067917E2,8.414307E1,5.4666046E1,7.5800285E1,2.5168304E1,0E0,7.361124E1,0E0,0E0,0E0,0E0,0E0,0E0],"parents":[2147483647,0,0,1,1,2,2,3,3,4,4,6,6],"right_children":[2,4,6,8,10,-1,12,-1,-1,-1,-1,-1,-1],"split_conditions":[2.8900514E0,2.6584306E0,2.568E0,1.9692452E0,1.9E1,3.9338745E-2,6E0,1.7958155E-2,-2.4284707E-2,1.02021754E-1,2.395998E-2,-4.7686722E-2,-1.7382458E-2],"split_indices":[4,4,5,4,0,0,15,0,0,0,0,0,0],"split_type":[0,0,0,0,0,0,0,0,0,0,0,0,0],"sum_hessian":[9.954783E2,5.454759E2,4.5000238E2,5.2297577E2,2.250012E1,1.0033837E1,4.3996857E2,4.843607E2,3.861507E1,1.1858171E1,1.0641949E1,9.638565E1,3.4358292E2],"tree_param":{"num_deleted":"0","num_feature":"17","num_nodes":"13","size_leaf_vector":"1"}},{"base_weights":[2.2608696E-5,3.600148E-1,-6.1156195E-1,7.6449454E-1,4.8535362E-2,-6.855521E-1,4.0742E-2,-1.2805288E-2,2.620747E-2,-2.2891182E-2,9.311021E-3,7.7168653E-3,-2.4103958E-2],"categories":[],"categories_nodes":[],"categories_segments":[],"categories_sizes":[],"default_left":[0,0,0,0,0,0,0,0,0,0,0,0,0],"id":71,"left_children":[1,3,5,7,9,11,-1,-1,-1,-1,-1,-1,-1],"loss_changes":[2.2322955E2,7.914983E1,5.5089447E1,3.7541885E1,7.765534E1,4.188344E1,0E0,0E0,0E0,0E0,0E0,0E0,0E0],"parents":[2147483647,0,0,1,1,2,2,3,3,4,4,5,5],"right_children":[2,4,6,8,10,12,-1,-1,-1,-1,-1,-1,-1],"split_conditions":[5.3333335E0,3.3333334E-1,2.4E1,2E0,4.2316456E1,3E0,4.0742E-2,-1.2805288E-2,2.620747E-2,-2.2891182E-2,9.311021E-3,7.7168653E-3,-2.4103958E-2],"split_indices":[6,6,2,0,9,2,0,0,0,0,0,0,0],"split_type":[0,0,0,0,0,0,0,0,0,0,0,0,0],"sum_hessian":[1.01220135E3,6.3973315E2,3.724682E2,2.742582E2,3.654749E2,3.6121814E2,1.125006E1,2.0979841E1,2.5327837E2,8.635181E1,2.791231E2,3.8006958E1,3.2321118E2],"tree_param":{"num_deleted":"0","num_feature":"17","num_nodes":"13","size_leaf_vector":"1"}},{"base_weights":[-0E0,3.9790046E-1,-8.552358E-1,3.351443E-1,9.054621E-2,-5.005885E-2,-6.8071413E-1,1.6175956E-2,-1.2649475E-2,2.108128E-2,-2.3962375E-2],"categories":[],"categories_nodes":[],"categories_segments":[],"categories_sizes":[],"default_left":[0,0,0,0,0,0,0,0,0,0,0],"id":72,"left_children":[1,3,5,7,-1,-1,9,-1,-1,-1,-1],"loss_changes":[3.4264062E2,1.0424692E2,3.8417923E1,1.047678E2,0E0,0E0,4.5183037E1,0E0,0E0,0E0,0E0],"parents":[2147483647,0,0,1,1,2,2,3,3,6,6],"right_children":[2,4,6,8,-1,-1,10,-1,-1,-1,-1],"split_conditions":[6.799559E0,7.3333335E0,6.470588E0,2.8900514E0,9.054621E-2,-5.005885E-2,8.242424E0,1.6175956E-2,-1.2649475E-2,2.108128E-2,-2.3962375E-2],"split_indices":[4,6,14,4,0,0,15,0,0,0,0],"split_type":[0,0,0,0,0,0,0,0,0,0,0],"sum_hessian":[1.0027756E3,6.850374E2,3.177382E2,6.71963E2,1.3074394E1,5.1081352E1,2.6665683E2,5.317934E2,1.4016966E2,1.8851452E1,2.4780537E2],"tree_param":{"num_deleted":"0","num_feature":"17","num_nodes":"11","size_leaf_vector":"1"}},{"base_weights":[5.087973E-2,4.4003677E-1,-5.8367157E-1,2.2735944E-1,9.989458E-1,-1.5662268E0,-3.8036025E-1,1.4377056E-2,-2.8204892E-2,3.779931E-2,-5.967796E-3,-5.403918E-2,-5.7043885E-3,1.0968633E-2,-2.4514092E-2],"categories":[],"categories_nodes":[],"categories_segments":[],"categories_sizes":[],"default_left":[0,0,0,0,0,0,0,0,0,0,0,0,0,0,0],"id":73,"left_children":[1,3,5,7,9,11,13,-1,-1,-1,-1,-1,-1,-1,-1],"loss_changes":[2.4774512E2,7.131411E1,7.081418E1,1.3450932E2,5.5443695E1,1.5650696E1,1.0548173E2,0E0,0E0,0E0,0E0,0E0,0E0,0E0,0E0],"parents":[2147483647,0,0,1,1,2,2,3,3,4,4,5,5,6,6],"right_children":[2,4,6,8,10,12,14,-1,-1,-1,-1,-1,-1,-1,-1],"split_conditions":[4.433955E0,1.8666667E0,6E0,1.5196086E0,3.7077513E0,9.666667E0,1.07428E1,1.4377056E-2,-2.8204892E-2,3.779931E-2,-5.967796E-3,-5.403918E-2,-5.7043885E-3,1.0968633E-2,-2.4514092E-2],"split_indices":[4,14,15,4,12,6,4,0,0,0,0,0,0,0,0],"split_type":[0,0,0,0,0,0,0,0,0,0,0,0,0,0,0],"sum_hessian":[1.00034314E3,6.22402E2,3.779412E2,4.554754E2,1.6692656E2,6.0811134E1,3.1713007E2,3.7702902E2,7.8446365E1,1.3834534E2,2.8581234E1,5.0169186E1,1.0641949E1,1.1554115E2,2.0158891E2],"tree_param":{"num_deleted":"0","num_feature":"17","num_nodes":"15","size_leaf_vector":"1"}},{"base_weights":[5.7315562E-2,5.87078E-1,-5.805106E-1,4.557251E-1,8.5852705E-2,-6.426145E-1,3.5364952E-2,2.4221884E-2,2.4860618E-3,-5.868374E-3,-2.5118215E-2],"categories":[],"categories_nodes":[],"categories_segments":[],"categories_sizes":[],"default_left":[0,0,0,0,0,0,0,0,0,0,0],"id":74,"left_children":[1,3,5,7,-1,9,-1,-1,-1,-1,-1],"loss_changes":[3.5232797E2,1.6142067E2,5.195549E1,6.931407E1,0E0,3.74395E1,0E0,0E0,0E0,0E0,0E0],"parents":[2147483647,0,0,1,1,2,2,3,3,5,5],"right_children":[2,4,6,8,-1,10,-1,-1,-1,-1,-1],"split_conditions":[3.140723E0,3E0,6.5333333E0,3.3333334E-1,8.5852705E-2,6.799559E0,3.5364952E-2,2.4221884E-2,2.4860618E-3,-5.868374E-3,-2.5118215E-2],"split_indices":[4,6,16,6,0,4,0,0,0,0,0],"split_type":[0,0,0,0,0,0,0,0,0,0,0],"sum_hessian":[1.0386542E3,5.691922E2,4.6946194E2,5.412191E2,2.7973122E1,4.5577945E2,1.3682506E1,2.7456226E2,2.6665683E2,1.4260211E2,3.1317734E2],"tree_param":{"num_deleted":"0","num_feature":"17","num_nodes":"11","size_leaf_vector":"1"}},{"base_weights":[3.0293277E-2,4.0734887E-1,-8.2747954E-1,3.4139797E-1,9.225165E-2,-9.5990473E-1,-6.021311E-2,1.6382635E-2,-1.3602947E-2,-0E0,-3.12857E-2,-2.8771086E-2,5.599234E-2],"categories":[],"categories_nodes":[],"categories_segments":[],"categories_sizes":[],"default_left":[0,0,0,0,0,0,0,0,0,0,0,0,0],"id":75,"left_children":[1,3,5,7,-1,9,11,-1,-1,-1,-1,-1,-1],"loss_changes":[3.3178867E2,1.17025215E2,2.9589813E1,1.1483155E2,0E0,2.1389084E1,8.894707E1,0E0,0E0,0E0,0E0,0E0,0E0],"parents":[2147483647,0,0,1,1,2,2,3,3,5,5,6,6],"right_children":[2,4,6,8,-1,10,12,-1,-1,-1,-1,-1,-1],"split_conditions":[6.931059E0,7.3333335E0,4.6318E1,2.8900514E0,9.225165E-2,1.3450054E1,1.3333334E-1,1.6382635E-2,-1.3602947E-2,-0E0,-3.12857E-2,-2.8771086E-2,5.599234E-2],"split_indices":[4,6,8,4,0,5,16,0,0,0,0,0,0],"split_type":[0,0,0,0,0,0,0,0,0,0,0,0,0],"sum_hessian":[1.0243635E3,7.139227E2,3.1044083E2,6.996321E2,1.4290616E1,2.6209598E2,4.8344852E1,5.588543E2,1.4077777E2,2.0675785E1,2.414202E2,3.435829E1,1.3986561E1],"tree_param":{"num_deleted":"0","num_feature":"17","num_nodes":"13","size_leaf_vector":"1"}},{"base_weights":[3.7665095E-2,6.6409177E-1,-3.7105083E-1,5.5694383E-1,2.1684854E0,6.5288115E-1,-5.011843E-1,2.1900805E-2,-2.183021E-2,2.3759767E-2,8.937936E-2,5.6897425E-5,6.551678E-2,-1.1557545E-2,-4.480896E-2],"categories":[],"categories_nodes":[],"categories_segments":[],"categories_sizes":[],"default_left":[0,0,0,0,0,0,0,0,0,0,0,0,0,0,0],"id":76,"left_children":[1,3,5,7,9,11,13,-1,-1,-1,-1,-1,-1,-1,-1],"loss_changes":[2.6308087E2,5.7690414E1,8.278143E1,8.6356606E1,1.5761436E1,6.428263E1,5.8572235E1,0E0,0E0,0E0,0E0,0E0,0E0,0E0,0E0],"parents":[2147483647,0,0,1,1,2,2,3,3,4,4,5,5,6,6],"right_children":[2,4,6,8,10,12,14,-1,-1,-1,-1,-1,-1,-1,-1],"split_conditions":[2.885706E0,2.6933253E0,1E0,2.1783087E0,1.4444444E0,1.2857143E0,3.497998E1,2.1900805E-2,-2.183021E-2,2.3759767E-2,8.937936E-2,5.6897425E-5,6.551678E-2,-1.1557545E-2,-4.480896E-2],"split_indices":[5,5,6,5,14,14,5,0,0,0,0,0,0,0,0],"split_type":[0,0,0,0,0,0,0,0,0,0,0,0,0,0,0],"sum_hessian":[1.021323E3,4.046981E2,6.166249E2,3.8158987E2,2.310823E1,6.689225E1,5.4973267E2,3.3841397E2,4.3175903E1,1.0946004E1,1.2162227E1,4.925702E1,1.763523E1,4.9652292E2,5.3209743E1],"tree_param":{"num_deleted":"0","num_feature":"17","num_nodes":"15","size_leaf_vector":"1"}},{"base_weights":[-1.1715262E-2,3.1093392E-1,-7.4541944E-1,2.4717383E-1,9.27936E-2,1.886662E-2,-8.406319E-1,1.7322645E-2,-6.0788924E-3,-3.1017315E-2,-5.8680605E-3],"categories":[],"categories_nodes":[],"categories_segments":[],"categories_sizes":[],"default_left":[0,0,0,0,0,0,0,0,0,0,0],"id":77,"left_children":[1,3,5,7,-1,-1,9,-1,-1,-1,-1],"loss_changes":[2.4415863E2,1.1808841E2,4.2801712E1,1.0480214E2,0E0,0E0,3.4231216E1,0E0,0E0,0E0,0E0],"parents":[2147483647,0,0,1,1,2,2,3,3,6,6],"right_children":[2,4,6,8,-1,-1,10,-1,-1,-1,-1],"split_conditions":[6.799559E0,7.3333335E0,1.2933977E1,1.150208E0,9.27936E-2,1.886662E-2,1.5428572E1,1.7322645E-2,-6.0788924E-3,-3.1017315E-2,-5.8680605E-3],"split_indices":[4,6,5,4,0,0,14,0,0,0,0],"split_type":[0,0,0,0,0,0,0,0,0,0,0],"sum_hessian":[1.02375543E3,7.0997E2,3.1378546E2,6.9689557E2,1.3074394E1,1.824334E1,2.955421E2,4.0409E2,2.928056E2,2.2408904E2,7.145308E1],"tree_param":{"num_deleted":"0","num_feature":"17","num_nodes":"11","size_leaf_vector":"1"}},{"base_weights":[-0E0,5.0413775E-1,-3.832147E-1,5.898416E-1,-8.7356013E-1,-2.7944982E-1,-1.2817274E0,1.2286053E-2,3.654639E-2,-4.0681455E-3,-4.2261984E-2,-1.21110985E-2,2.0409787E-2,-4.4430196E-2,-1.3915541E-2],"categories":[],"categories_nodes":[],"categories_segments":[],"categories_sizes":[],"default_left":[0,0,0,0,0,0,0,0,0,0,0,0,0,0,0],"id":78,"left_children":[1,3,5,7,9,11,13,-1,-1,-1,-1,-1,-1,-1,-1],"loss_changes":[1.9896298E2,5.28276E1,5.0918335E1,4.3341156E1,6.5654297E0,6.332753E1,4.230316E0,0E0,0E0,0E0,0E0,0E0,0E0,0E0,0E0],"parents":[2147483647,0,0,1,1,2,2,3,3,4,4,5,5,6,6],"right_children":[2,4,6,8,10,12,14,-1,-1,-1,-1,-1,-1,-1,-1],"split_conditions":[3.043724E0,2.3E1,3.497998E1,1.8666667E0,3.3333334E-1,1.53E1,2.025E3,1.2286053E-2,3.654639E-2,-4.0681455E-3,-4.2261984E-2,-1.21110985E-2,2.0409787E-2,-4.4430196E-2,-1.3915541E-2],"split_indices":[5,2,5,14,6,14,3,0,0,0,0,0,0,0,0],"split_type":[0,0,0,0,0,0,0,0,0,0,0,0,0,0,0],"sum_hessian":[1.026796E3,4.4148883E2,5.853072E2,4.1807654E2,2.3412287E1,5.290569E2,5.6250298E1,3.299004E2,8.817615E1,1.2466283E1,1.0946004E1,4.712863E2,5.7770576E1,4.1959682E1,1.4290617E1],"tree_param":{"num_deleted":"0","num_feature":"17","num_nodes":"15","size_leaf_vector":"1"}},{"base_weights":[6.9014085E-3,3.940657E-1,-6.0705847E-1,2.0278504E-1,1.3907045E0,-1.5243379E0,-4.199264E-1,1.2769627E-2,-3.3936728E-2,2.2154557E-2,7.043291E-2,-6.3479714E-2,-2.556245E-2,3.3998363E-2,-1.8476453E-2],"categories":[],"categories_nodes":[],"categories_segments":[],"categories_sizes":[],"default_left":[0,0,0,0,0,0,0,0,0,0,0,0,0,0,0],"id":79,"left_children":[1,3,5,7,9,11,13,-1,-1,-1,-1,-1,-1,-1,-1],"loss_changes":[2.3245847E2,1.1116808E2,5.9527145E1,1.511123E2,4.9685715E1,1.4835815E1,9.702853E1,0E0,0E0,0E0,0E0,0E0,0E0,0E0,0E0],"parents":[2147483647,0,0,1,1,2,2,3,3,4,4,5,5,6,6],"right_children":[2,4,6,8,10,12,14,-1,-1,-1,-1,-1,-1,-1,-1],"split_conditions":[4.872613E0,3.125E0,6.1923075E0,1.9692452E0,2.5065908E1,6.3333335E0,6.931059E0,1.2769627E-2,-3.3936728E-2,2.2154557E-2,7.043291E-2,-6.3479714E-2,-2.556245E-2,3.3998363E-2,-1.8476453E-2],"split_indices":[4,15,15,4,7,6,4,0,0,0,0,0,0,0,0],"split_type":[0,0,0,0,0,0,0,0,0,0,0,0,0,0,0],"sum_hessian":[9.7571466E2,6.00814E2,3.7490063E2,5.0777298E2,9.304104E1,5.9290855E1,3.1560977E2,4.375361E2,7.023686E1,5.8682743E1,3.435829E1,2.7669065E1,3.162179E1,3.3142067E1,2.824677E2],"tree_param":{"num_deleted":"0","num_feature":"17","num_nodes":"15","size_leaf_vector":"1"}},{"base_weights":[6.146508E-2,2.889792E-1,-7.4006814E-1,1.6158578E0,2.3658308E-1,-4.937222E-1,-1.4025319E0,1.162064E-2,6.979539E-2,1.3946612E-2,-3.1269732E-4,-2.4576595E-2,1.2824561E-2,-7.381146E-2,-2.8936267E-2],"categories":[],"categories_nodes":[],"categories_segments":[],"categories_sizes":[],"default_left":[0,0,0,0,0,0,0,0,0,0,0,0,0,0,0],"id":80,"left_children":[1,3,5,7,9,11,13,-1,-1,-1,-1,-1,-1,-1,-1],"loss_changes":[1.8514081E2,5.0884552E1,3.1322266E1,1.7610428E1,4.4326237E1,5.195431E1,1.4970192E1,0E0,0E0,0E0,0E0,0E0,0E0,0E0,0E0],"parents":[2147483647,0,0,1,1,2,2,3,3,4,4,5,5,6,6],"right_children":[2,4,6,8,10,12,14,-1,-1,-1,-1,-1,-1,-1,-1],"split_conditions":[2.088E1,1.5707865E1,3.497998E1,-2.4561404E-1,3.043724E0,1.53E1,1.2666667E1,1.162064E-2,6.979539E-2,1.3946612E-2,-3.1269732E-4,-2.4576595E-2,1.2824561E-2,-7.381146E-2,-2.8936267E-2],"split_indices":[5,7,5,16,5,14,6,0,0,0,0,0,0,0,0],"split_type":[0,0,0,0,0,0,0,0,0,0,0,0,0,0,0],"sum_hessian":[1.01585E3,7.941934E2,2.2165659E2,2.6452843E1,7.6774054E2,1.6631845E2,5.533813E1,1.1858171E1,1.4594672E1,4.0226566E2,3.654749E2,1.2466283E2,4.165563E1,1.2162227E1,4.3175903E1],"tree_param":{"num_deleted":"0","num_feature":"17","num_nodes":"15","size_leaf_vector":"1"}},{"base_weights":[-3.0870713E-2,4.1092876E-1,-5.7228136E-1,2.0989569E-1,1.0668305E0,-1.616824E0,-4.0998307E-1,2.2904785E-2,-7.5909668E-3,4.7591206E-2,1.1518923E-2,-7.073689E-2,-2.4139218E-2,9.141976E-3,-2.4409387E-2],"categories":[],"categories_nodes":[],"categories_segments":[],"categories_sizes":[],"default_left":[0,0,0,0,0,0,0,0,0,0,0,0,0,0,0],"id":81,"left_children":[1,3,5,7,9,11,13,-1,-1,-1,-1,-1,-1,-1,-1],"loss_changes":[2.4149394E2,6.9949486E1,7.176294E1,1.11166565E2,3.988623E1,2.5306503E1,1.1639171E2,0E0,0E0,0E0,0E0,0E0,0E0,0E0,0E0],"parents":[2147483647,0,0,1,1,2,2,3,3,4,4,5,5,6,6],"right_children":[2,4,6,8,10,12,14,-1,-1,-1,-1,-1,-1,-1,-1],"split_conditions":[3.140723E0,1.8666667E0,3.125E0,1.1492434E0,5.8174862E1,4.3333335E0,9.760445E0,2.2904785E-2,-7.5909668E-3,4.7591206E-2,1.1518923E-2,-7.073689E-2,-2.4139218E-2,9.141976E-3,-2.4409387E-2],"split_indices":[4,14,15,5,9,6,4,0,0,0,0,0,0,0,0],"split_type":[0,0,0,0,0,0,0,0,0,0,0,0,0,0,0],"sum_hessian":[1.0042959E3,5.512529E2,